0.00412081973627209663
-0.00202493439428508282
-0.00887149758636951447
0.00808933656662702560
0.00661843363195657730
0.00226906291209161282
0.00869870185852050781
-0.00910366326570510864
0.01122866757214069366
0.00245227897539734840
0.00860429927706718445
0.01197241619229316711
0.00650703441351652145
0.00331870093941688538
0.00171158730518072844
-0.01490011159330606461
0.00454432936385273933
-0.00979666970670223236
0.00199615210294723511
0.00109455268830060959
-0.00896771624684333801
0.00078736798604950309
-0.00426856568083167076
0.00603766553103923798
0.00314952759072184563
-0.01397568639367818832
-0.00221038819290697575
0.00051184993935748935
-0.00957964453846216202
-0.01456985529512166977
-0.00772198103368282318
-0.00212815799750387669
0.00032030948204919696
-0.00985641125589609146
0.00845930073410272598
-0.00651464844122529030
-0.01103956252336502075
-0.00250799139030277729
-0.00321901217103004456
-0.00882201734930276871
-0.00676460610702633858
0.00931246671825647354
-0.00238562608137726784
-0.00024155664141289890
-0.00499912770465016365
-0.00701518356800079346
-0.01095820218324661255
-0.00631406158208847046
-0.00055703555699437857
-0.00755154015496373177
-0.00067787437001243234
0.00002000393578782678
-0.00231273844838142395
0.00751457782462239265
-0.01316264830529689789
0.00113570189569145441
0.00282141752541065216
0.00601112656295299530
-0.00411581527441740036
0.00403683679178357124
0.00292137265205383301
-0.00115090154577046633
-0.00252987956628203392
-0.01080617960542440414
-0.00640877475962042809
-0.00681202253326773643
-0.00263533531688153744
-0.00701075978577136993
0.00248932535760104656
0.00071937573375180364
0.00994966924190521240
0.00265431380830705166
0.00374299101531505585
0.00411395123228430748
0.00481233699247241020
-0.00367565918713808060
-0.00047477611224167049
0.00591961527243256569
0.00593066401779651642
-0.00257230596616864204
0.00098507443908601999
0.00325939129106700420
-0.01150759495794773102
0.00434463052079081535
0.00097921746782958508
-0.00848193559795618057
-0.00081159779801964760
0.00864377990365028381
-0.00552056916058063507
-0.00194608513265848160
-0.00861224811524152756
0.00582333095371723175
0.00312271644361317158
-0.00984563771635293961
-0.01927626691758632660
-0.00847111549228429794
0.00238247378729283810
-0.00166980794165283442
-0.00311009027063846588
0.00038919597864151001
0.00299792340956628323
0.00129922060295939445
-0.01033796183764934540
0.00162315042689442635
-0.00910238735377788544
-0.01131829433143138885
0.00322744483128190041
0.00647164974361658096
0.00010030339035438374
-0.00210056453943252563
0.00041082513052970171
-0.00200214376673102379
0.00047605158761143684
-0.00000360759440809488
-0.01920181885361671448
-0.01195988617837429047
-0.00033448191243223846
-0.00860245712101459503
-0.00486402492970228195
-0.00431250175461173058
-0.00716896634548902512
-0.00090793159324675798
-0.00560955656692385674
0.00242158537730574608
0.01013171300292015076
0.00064573052804917097
-0.00378912920132279396
-0.00267098401673138142
