-0.21786655485630035400
0.14480464160442352295
0.03537083417177200317
0.15918096899986267090
-0.15258045494556427002
-0.21138966083526611328
-0.11248829215764999390
0.14989511668682098389
-0.07454109191894531250
0.16410273313522338867
-0.23531483113765716553
0.17107582092285156250
0.14534434676170349121
-0.03926125913858413696
0.17025403678417205811
-0.21216799318790435791
0.14281199872493743896
0.16784103214740753174
0.15378554165363311768
-0.08214027434587478638
-0.06279776245355606079
-0.31353151798248291016
-0.21732178330421447754
0.06689700484275817871
0.01970912329852581024
0.08435647189617156982
-0.00913451611995697021
0.01663265563547611237
0.04713121056556701660
0.08455120027065277100
0.16274502873420715332
0.10102960467338562012
-0.09375386685132980347
-0.04828932881355285645
0.15683621168136596680
0.17362760007381439209
-0.04335935786366462708
0.22784292697906494141
0.05798483639955520630
-0.00654817186295986176
-0.13819809257984161377
0.15686354041099548340
0.12679319083690643311
-0.16059820353984832764
0.06845173984766006470
-0.23542715609073638916
0.01476998627185821533
0.17897219955921173096
-0.19629436731338500977
0.09160184115171432495
-0.13326056301593780518
0.09305644780397415161
0.18019232153892517090
-0.19955073297023773193
0.15058565139770507812
0.06882867217063903809
0.13125066459178924561
-0.19286684691905975342
-0.08485227823257446289
-0.23363488912582397461
0.16349962353706359863
-0.09205930680036544800
0.05935519933700561523
0.10097538679838180542
-0.07286412268877029419
0.16483670473098754883
0.13958673179149627686
0.12286658585071563721
-0.17219203710556030273
-0.09774176776409149170
0.21448306739330291748
0.13586908578872680664
0.02584633789956569672
-0.08784833550453186035
-0.19017553329467773438
-0.19424591958522796631
-0.21422071754932403564
-0.19178824126720428467
0.05669144541025161743
0.10482680797576904297
0.09155171364545822144
-0.18438784778118133545
-0.00190611532889306545
-0.07289395481348037720
-0.07779587060213088989
-0.00415795296430587769
0.19852437078952789307
0.07563522458076477051
-0.08333819359540939331
-0.18437911570072174072
-0.10680631548166275024
-0.13809363543987274170
0.15830586850643157959
-0.18850904703140258789
-0.06058940663933753967
0.17257569730281829834
0.10926894843578338623
0.05056417360901832581
-0.10094026476144790649
0.18675284087657928467
-0.06653743982315063477
-0.05912278220057487488
0.06916993111371994019
0.10138856619596481323
-0.21893438696861267090
0.19401739537715911865
-0.23546044528484344482
0.19118522107601165771
-0.21166506409645080566
-0.09563450515270233154
-0.24791711568832397461
0.19321016967296600342
0.04071981832385063171
0.04045336320996284485
0.13732545077800750732
-0.04929421469569206238
-0.12140960991382598877
0.19024774432182312012
-0.11607433110475540161
0.15079395473003387451
-0.08183502405881881714
0.18044534325599670410
0.05841556563973426819
0.01481567882001399994
-0.07860468327999114990
-0.13000731170177459717
0.07752905786037445068
0.23070201277732849121
0.07166267186403274536
0.22846908867359161377
0.17744238674640655518
0.16229283809661865234
-0.07123482227325439453
0.06901782006025314331
-0.24467481672763824463
-0.06499741226434707642
-0.19078704714775085449
0.16020704805850982666
0.07070851325988769531
0.07717047631740570068
-0.26617440581321716309
0.18777310848236083984
-0.24405831098556518555
0.06521092355251312256
0.18565139174461364746
0.02076062746345996857
-0.10852536559104919434
-0.07314708083868026733
-0.00546807795763015747
0.06304097175598144531
-0.12171027809381484985
-0.24517989158630371094
-0.20479832589626312256
0.10905183851718902588
0.05458723753690719604
0.11593739688396453857
-0.20716029405593872070
-0.16656458377838134766
0.09153099358081817627
0.10792792588472366333
-0.14463877677917480469
-0.03050914406776428223
0.06003893539309501648
-0.14609739184379577637
0.16512969136238098145
-0.12409011274576187134
0.10521289706230163574
0.19591981172561645508
-0.11240240931510925293
0.05402819439768791199
-0.20403084158897399902
-0.01277624443173408508
0.13727720081806182861
0.03058680146932601929
-0.01103082299232482910
-0.16003331542015075684
0.09557883441448211670
-0.22336773574352264404
-0.00894717685878276825
0.14875845611095428467
-0.12090925127267837524
-0.16096217930316925049
0.06338369846343994141
0.16577491164207458496
-0.12869055569171905518
-0.14348988234996795654
-0.20040352642536163330
0.08675943315029144287
-0.16203640401363372803
-0.20363716781139373779
-0.08675715327262878418
0.12703953683376312256
-0.19181255996227264404
-0.11882510781288146973
0.13516968488693237305
-0.05457694828510284424
-0.05360335484147071838
0.19406768679618835449
0.12652924656867980957
-0.00413534371182322502
-0.04372558370232582092
-0.06165363639593124390
0.16806560754776000977
0.11135421693325042725
-0.14445814490318298340
0.11832325160503387451
0.02942594885826110840
-0.11054100096225738525
0.13886073231697082520
-0.17807307839393615723
0.05955753102898597717
0.02692593447864055634
0.12491334974765777588
-0.10981044918298721313
-0.22764688730239868164
-0.18053250014781951904
0.16888616979122161865
0.06133128330111503601
-0.04535570740699768066
-0.01449280790984630585
-0.23204195499420166016
-0.10046047717332839966
-0.11596928536891937256
-0.18847231566905975342
-0.18240946531295776367
-0.13037766516208648682
-0.23337277770042419434
0.02449393086135387421
-0.24877667427062988281
0.20855644345283508301
-0.12173025310039520264
0.02903290838003158569
0.09419088065624237061
0.07596434652805328369
-0.09050296247005462646
0.08031394332647323608
-0.04684994742274284363
-0.16629576683044433594
-0.18480472266674041748
0.00902046728879213333
0.15313480794429779053
0.11310039460659027100
0.05993708595633506775
-0.07058753818273544312
0.00380169111303985119
-0.05982514098286628723
0.21413965523242950439
0.20025584101676940918
0.09721864759922027588
0.17183382809162139893
-0.02636809460818767548
-0.01591446064412593842
0.01333355344831943512
0.14914961159229278564
0.03679444268345832825
-0.09977497905492782593
-0.21134772896766662598
-0.19703336060047149658
0.06280366331338882446
0.18485517799854278564
-0.15724354982376098633
-0.14636670053005218506
-0.20187990367412567139
-0.11706265807151794434
-0.18434609472751617432
-0.21172367036342620850
-0.04827230796217918396
0.09185391664505004883
-0.12469398230314254761
0.07866836339235305786
0.14490768313407897949
-0.18810677528381347656
-0.16606225073337554932
-0.16489990055561065674
-0.21101447939872741699
0.09374944865703582764
-0.02827315218746662140
-0.14997465908527374268
-0.21425123512744903564
0.06198447570204734802
0.12718608975410461426
0.09212651103734970093
0.03771120309829711914
-0.06277058273553848267
-0.09680068492889404297
-0.21410092711448669434
-0.24461174011230468750
-0.00710639497265219688
0.18494595587253570557
-0.06386369466781616211
0.14805090427398681641
-0.26790380477905273438
0.00361504103057086468
-0.12586392462253570557
-0.12213469296693801880
0.16666457056999206543
0.21469062566757202148
-0.18895226716995239258
0.17545667290687561035
-0.07283175736665725708
0.08164241909980773926
-0.17538709938526153564
0.19187664985656738281
-0.13288237154483795166
-0.23770293593406677246
-0.11847443133592605591
-0.21364578604698181152
0.00657291617244482040
0.05157525092363357544
-0.07537585496902465820
0.18342505395412445068
0.09863660484552383423
-0.03147047013044357300
0.17874126136302947998
-0.16762536764144897461
0.06659444421529769897
-0.19170717895030975342
-0.03860200569033622742
-0.22268860042095184326
0.17962503433227539062
0.00408830586820840836
-0.02821198664605617523
-0.04810481145977973938
-0.17900523543357849121
-0.16674244403839111328
-0.03431377187371253967
-0.00923391431570053101
-0.20776201784610748291
0.01357070263475179672
-0.16830691695213317871
0.10707202553749084473
-0.05227068066596984863
0.19806982576847076416
-0.19127380847930908203
-0.09648396074771881104
-0.08132658153772354126
0.06860208511352539062
-0.14933015406131744385
0.12263170629739761353
0.09042359888553619385
0.11834517121315002441
-0.16404484212398529053
-0.00044289784273132682
-0.17335361242294311523
-0.21440836787223815918
0.17092473804950714111
0.05095633119344711304
0.16015978157520294189
-0.11499632894992828369
0.09045311063528060913
0.02820980548858642578
0.10017747431993484497
-0.21190673112869262695
0.17462787032127380371
0.05944014713168144226
-0.05401866883039474487
-0.16196101903915405273
-0.20262913405895233154
0.10611321777105331421
0.11422556638717651367
0.17446191608905792236
-0.22301030158996582031
-0.11806040257215499878
-0.14790965616703033447
0.21366645395755767822
-0.03398907184600830078
0.06504771858453750610
0.01108855102211236954
0.13836070895195007324
0.12045591324567794800
-0.01545306947082281113
-0.19440318644046783447
0.03367666900157928467
0.19405378401279449463
-0.08472860604524612427
0.19371570646762847900
0.18126557767391204834
-0.01956039480865001678
0.01775720901787281036
-0.15803515911102294922
0.18586093187332153320
0.09567026048898696899
0.15109132230281829834
0.08413881063461303711
0.05998298153281211853
0.16355907917022705078
0.11839982867240905762
-0.13341452181339263916
-0.13243462145328521729
-0.17136548459529876709
0.16942611336708068848
-0.02898854762315750122
-0.01861282438039779663
-0.05769418179988861084
0.04648540169000625610
0.10691597312688827515
0.10572166740894317627
0.11587090045213699341
0.20454712212085723877
0.17650108039379119873
0.07920246571302413940
0.08493024110794067383
-0.11885567009449005127
-0.09000525623559951782
-0.14274859428405761719
0.19762901961803436279
0.05142593383789062500
-0.19399333000183105469
0.15251840651035308838
0.13041153550148010254
-0.03424908220767974854
0.16894847154617309570
0.09202295541763305664
-0.08116681873798370361
-0.22277297079563140869
0.15292285382747650146
0.12415799498558044434
-0.13899870216846466064
0.01183087471872568130
-0.04472498968243598938
-0.19919364154338836670
0.02292084880173206329
0.03721130266785621643
-0.07663027942180633545
0.17394621670246124268
-0.14958430826663970947
0.09496331214904785156
-0.01501368824392557144
-0.16546362638473510742
0.13156515359878540039
-0.10921731591224670410
-0.19916568696498870850
-0.22590956091880798340
0.13143360614776611328
0.09705633670091629028
0.06836421042680740356
-0.02303311787545681000
0.07220187783241271973
-0.13966804742813110352
-0.10115439444780349731
0.03633089363574981689
-0.02009291388094425201
-0.13541686534881591797
-0.18204300105571746826
-0.05629419162869453430
-0.17737464606761932373
0.15435490012168884277
-0.11907882988452911377
-0.05576176568865776062
-0.17297579348087310791
-0.07956085354089736938
0.14648267626762390137
0.14003911614418029785
-0.06560070067644119263
0.02107364870607852936
0.21999832987785339355
0.21818742156028747559
-0.15410892665386199951
0.22458821535110473633
-0.15933252871036529541
-0.04525745287537574768
-0.23274923861026763916
0.14318583905696868896
0.12721225619316101074
-0.13623152673244476318
0.06671536713838577271
-0.27358120679855346680
0.11217537522315979004
0.12246965616941452026
0.07770345360040664673
-0.03855370357632637024
0.16405051946640014648
-0.21839599311351776123
0.02956319041550159454
-0.12111853063106536865
-0.11029551178216934204
-0.01432995684444904327
-0.20821778476238250732
0.06310854852199554443
-0.17479281127452850342
0.19169902801513671875
0.16471903026103973389
-0.01068944577127695084
0.12166523188352584839
0.00076239201007410884
-0.07019300758838653564
0.09050906449556350708
-0.00165450130589306355
-0.23742616176605224609
0.11157671362161636353
-0.09956139326095581055
0.17729170620441436768
0.20492850244045257568
-0.17920613288879394531
0.15556767582893371582
-0.17014676332473754883
0.10129552334547042847
-0.17522966861724853516
0.10198469460010528564
0.06211116537451744080
-0.16535517573356628418
0.21237358450889587402
0.22418828308582305908
-0.09224808216094970703
-0.02386311627924442291
-0.20969852805137634277
0.15629892051219940186
0.11942302435636520386
0.14257445931434631348
-0.02267646789550781250
-0.21931000053882598877
0.14002698659896850586
0.22684638202190399170
0.21038836240768432617
0.08307685703039169312
-0.09957422316074371338
0.09236162155866622925
0.17683339118957519531
-0.09108591079711914062
-0.16594554483890533447
0.24008250236511230469
-0.00668869353830814362
0.09277796745300292969
-0.20537021756172180176
-0.19583466649055480957
-0.14759652316570281982
0.20511056482791900635
0.02973671816289424896
-0.02466374263167381287
-0.01835712417960166931
-0.08020013570785522461
0.25562199950218200684
-0.03783680498600006104
-0.14934085309505462646
-0.02586964145302772522
0.12758600711822509766
0.01463880855590105057
-0.10115704685449600220
-0.14172776043415069580
-0.15924696624279022217
-0.00341177056543529034
-0.24585294723510742188
0.15559765696525573730
-0.11338992416858673096
0.01113213039934635162
-0.05879693478345870972
0.16756314039230346680
-0.11657090485095977783
0.10062373429536819458
0.02553909458220005035
-0.22027651965618133545
-0.03641286864876747131
-0.07304353266954421997
-0.08971774578094482422
0.18598218262195587158
0.01456196047365665436
0.15699118375778198242
0.10168948024511337280
-0.21153193712234497070
0.10348619520664215088
0.14227908849716186523
0.12285777181386947632
-0.06470075249671936035
-0.14648535847663879395
-0.20381611585617065430
-0.21676097810268402100
0.18406008183956146240
-0.00923372898250818253
-0.20770716667175292969
-0.04348993301391601562
-0.01149101275950670242
0.01985815167427062988
-0.14268359541893005371
0.07197283208370208740
-0.17680299282073974609
0.08367232233285903931
-0.05793347954750061035
-0.23674091696739196777
0.00153679575305432081
-0.08574544638395309448
0.04441027343273162842
-0.07806947082281112671
0.08016971498727798462
-0.01249028183519840240
-0.14610868692398071289
0.10658662766218185425
-0.12336533516645431519
-0.22389125823974609375
-0.10802250355482101440
0.05142287909984588623
-0.07930622994899749756
0.24360682070255279541
-0.06460610777139663696
-0.12200211733579635620
-0.07122512906789779663
-0.11421390622854232788
-0.05176767334342002869
-0.13515876233577728271
0.01260902173817157745
-0.12134864181280136108
0.15969207882881164551
0.13665917515754699707
-0.09168981760740280151
-0.20692566037178039551
0.20342808961868286133
-0.06231355294585227966
-0.12460413575172424316
0.01320395059883594513
-0.21779994666576385498
0.14232654869556427002
-0.11874860525131225586
-0.00308278831653296947
0.16846294701099395752
0.19544675946235656738
0.01758893392980098724
-0.09462239593267440796
-0.15952551364898681641
0.20289206504821777344
-0.18863403797149658203
-0.12097665667533874512
-0.18201200664043426514
0.02508722618222236633
0.12069611996412277222
-0.01036411710083484650
0.00274614733643829823
0.09047569334506988525
-0.19591324031352996826
-0.24984782934188842773
0.00653537455946207047
-0.07334799319505691528
0.19436544179916381836
-0.22301456332206726074
-0.10628909617662429810
0.12794618308544158936
0.19118139147758483887
0.03342937678098678589
0.17340286076068878174
-0.09705924987792968750
0.17984612286090850830
-0.11337032169103622437
0.09824503213167190552
0.19250950217247009277
-0.01238813810050487518
-0.10228316485881805420
0.05140504240989685059
-0.05515247210860252380
0.17441777884960174561
-0.13155385851860046387
-0.03069386072456836700
0.19487746059894561768
0.03495655953884124756
-0.20018662512302398682
-0.20228403806686401367
0.17176665365695953369
0.10725305229425430298
0.20807540416717529297
-0.08813217282295227051
-0.04836343228816986084
0.10954290628433227539
0.07697297632694244385
0.10003966093063354492
0.26479628682136535645
-0.22737418115139007568
-0.07140046358108520508
0.16195856034755706787
-0.05612243339419364929
-0.05193112418055534363
-0.04059956222772598267
0.04913495853543281555
-0.19960485398769378662
0.14179806411266326904
-0.18408124148845672607
0.04530616849660873413
-0.12085411697626113892
0.06578838825225830078
-0.01714774407446384430
-0.21462191641330718994
-0.21662811934947967529
0.03679322823882102966
-0.00065015640575438738
-0.06574823707342147827
0.01922200620174407959
-0.22185996174812316895
0.19322012364864349365
-0.10543893277645111084
0.14757116138935089111
0.00628167623654007912
0.08427436649799346924
-0.14683245122432708740
0.01422000396996736526
-0.00465465942397713661
0.09437884390354156494
0.18598273396492004395
-0.09088841080665588379
0.20724661648273468018
0.00505026755854487419
-0.19282113015651702881
-0.01327954605221748352
0.05075163394212722778
-0.05786795541644096375
-0.14158566296100616455
0.24071052670478820801
-0.02325961552560329437
-0.02246419526636600494
0.06762880831956863403
0.19020289182662963867
0.09957197308540344238
-0.12090556323528289795
-0.03149025142192840576
-0.07005093246698379517
0.17498417198657989502
-0.20713046193122863770
-0.14873108267784118652
-0.22588376700878143311
0.15532685816287994385
0.14080032706260681152
-0.18156507611274719238
0.14047129452228546143
0.03734500333666801453
-0.05998933315277099609
0.09978771954774856567
0.07855796813964843750
0.12844423949718475342
0.01351029984652996063
0.03319450840353965759
-0.23112863302230834961
-0.00612028269097208977
0.14167614281177520752
0.01136224437505006790
0.04082141816616058350
-0.07560285925865173340
0.18679882586002349854
0.00244110426865518093
0.02663119696080684662
0.21408963203430175781
0.04110874980688095093
0.25788545608520507812
-0.13417012989521026611
-0.11497590690851211548
-0.23571020364761352539
-0.12115337699651718140
-0.20009268820285797119
-0.23778200149536132812
-0.12924242019653320312
0.06912000477313995361
-0.21430979669094085693
-0.03167291358113288879
0.07415679842233657837
-0.23252797126770019531
0.02327659167349338531
-0.15157455205917358398
-0.20021267235279083252
0.15798836946487426758
-0.16921697556972503662
0.16329728066921234131
0.17518749833106994629
-0.12925930321216583252
0.07296840846538543701
0.12612636387348175049
-0.07026191055774688721
0.18760295212268829346
0.01348000578582286835
-0.19038268923759460449
0.09522241353988647461
0.00288816215470433235
0.20182840526103973389
0.20856006443500518799
-0.04773475602269172668
-0.23523163795471191406
0.06914382427930831909
0.19044907391071319580
0.18337619304656982422
0.10982943326234817505
0.03610356152057647705
-0.02276262082159519196
0.17268621921539306641
-0.20197746157646179199
-0.21595877408981323242
-0.11317620426416397095
-0.14641432464122772217
-0.04739248752593994141
0.07235877215862274170
0.11318456381559371948
-0.18457394838333129883
0.12456675618886947632
-0.13925173878669738770
0.00644044391810894012
0.22079250216484069824
-0.11315419524908065796
0.10640843212604522705
0.06537473201751708984
-0.13716559112071990967
-0.08919907361268997192
-0.21723550558090209961
0.09667702764272689819
-0.21848440170288085938
-0.10321364551782608032
0.08708009123802185059
-0.02834623679518699646
0.07540174573659896851
-0.18632377684116363525
-0.02160895057022571564
-0.09551840275526046753
-0.19371525943279266357
0.07615157961845397949
0.12274248898029327393
-0.06397709995508193970
-0.22216330468654632568
-0.14827847480773925781
0.18645812571048736572
0.02013502642512321472
0.03379667550325393677
-0.15120178461074829102
0.20139628648757934570
-0.16461770236492156982
-0.14816369116306304932
-0.15534175932407379150
-0.03905494511127471924
0.02332181856036186218
-0.16747958958148956299
0.12946452200412750244
-0.02850075624883174896
-0.01228110678493976593
-0.08284164965152740479
0.17407652735710144043
0.10190299898386001587
0.18116423487663269043
-0.20334552228450775146
0.15917758643627166748
-0.04794210940599441528
-0.20560215413570404053
0.09854426234960556030
-0.03263979032635688782
-0.22805695235729217529
0.19319123029708862305
-0.01530927978456020355
0.07912469655275344849
-0.04167835041880607605
0.02469635941088199615
0.06459645181894302368
-0.20820960402488708496
0.02579941600561141968
0.13038252294063568115
0.10481683164834976196
-0.14811110496520996094
0.11283469945192337036
0.10343071818351745605
0.21681708097457885742
0.07827684283256530762
0.22434338927268981934
-0.05274006724357604980
0.09294282644987106323
0.18999154865741729736
0.12901026010513305664
-0.05453971773386001587
-0.08224052190780639648
-0.07666233927011489868
-0.06820145249366760254
0.13198390603065490723
0.02986559085547924042
-0.01659837923943996429
-0.20285995304584503174
0.04728832095861434937
0.18232724070549011230
-0.08674194663763046265
0.15854424238204956055
0.13632212579250335693
-0.17199717462062835693
-0.16078853607177734375
0.16668905317783355713
0.17588873207569122314
-0.24882867932319641113
-0.17096470296382904053
0.13558414578437805176
-0.06980904191732406616
0.15516534447669982910
-0.05046968907117843628
0.06169802322983741760
-0.11849778145551681519
0.09400056302547454834
-0.10525391995906829834
0.12874883413314819336
-0.09462431818246841431
0.21157582104206085205
-0.17463120818138122559
-0.05344459787011146545
0.13435471057891845703
-0.19767041504383087158
0.09764236956834793091
-0.19632896780967712402
0.22689649462699890137
-0.02270275540649890900
-0.03968063741922378540
-0.16849263012409210205
0.02456052973866462708
-0.13888427615165710449
-0.13223706185817718506
0.19007398188114166260
0.02028705924749374390
0.02275753207504749298
-0.09761115163564682007
0.06785809993743896484
-0.17824833095073699951
0.15134859085083007812
0.14024622738361358643
-0.01060324348509311676
-0.01638642139732837677
0.12296254187822341919
0.14002971351146697998
0.14388640224933624268
0.07009601593017578125
-0.14376959204673767090
-0.21545846760272979736
-0.19958414137363433838
0.08917613327503204346
0.16306656599044799805
0.20139738917350769043
0.03533616289496421814
-0.12999297678470611572
-0.07140345871448516846
-0.19092154502868652344
0.21010302007198333740
0.24771341681480407715
-0.03320016711950302124
0.13562811911106109619
0.08034462481737136841
-0.21820224821567535400
-0.09342854470014572144
-0.13280095160007476807
-0.12598732113838195801
-0.01642796583473682404
0.16786803305149078369
-0.03949758410453796387
-0.13849119842052459717
0.22489446401596069336
-0.19480018317699432373
0.12908381223678588867
-0.19573557376861572266
0.14108438789844512939
0.19832175970077514648
-0.21509243547916412354
-0.10083717107772827148
0.03102201223373413086
0.08588851243257522583
0.10998134315013885498
0.16210411489009857178
0.11967036128044128418
-0.16185972094535827637
0.14626999199390411377
0.13930055499076843262
-0.23844365775585174561
-0.03341891244053840637
-0.13670253753662109375
0.14518748223781585693
0.09585832059383392334
0.11970661580562591553
0.04933753609657287598
-0.02799277380108833313
0.09652592241764068604
0.12235372513532638550
-0.06043382734060287476
-0.08468582481145858765
0.18003727495670318604
0.13305826485157012939
0.15555842220783233643
-0.01293115504086017609
0.19229283928871154785
-0.13028872013092041016
-0.19925829768180847168
-0.16149796545505523682
0.21984909474849700928
-0.17090235650539398193
0.01716274768114089966
0.09829317778348922729
0.16933192312717437744
-0.14279514551162719727
-0.17569406330585479736
0.07318484038114547729
-0.02914792113006114960
-0.12279380857944488525
0.16100126504898071289
0.01628543622791767120
0.02488088980317115784
0.13765108585357666016
0.19358347356319427490
-0.05789914354681968689
-0.06483498960733413696
-0.10150048136711120605
-0.02036525122821331024
0.18856713175773620605
-0.07084432244300842285
0.13079829514026641846
-0.03308109566569328308
0.19490921497344970703
-0.10302527248859405518
0.02111922949552536011
0.04814724624156951904
-0.02410268224775791168
0.06599461287260055542
0.07329297065734863281
-0.09396093338727951050
0.18579371273517608643
-0.19115032255649566650
0.06494404375553131104
0.17528873682022094727
0.11863436549901962280
-0.03405772149562835693
0.08539819717407226562
-0.21964213252067565918
-0.13896265625953674316
-0.19082473218441009521
0.18134586513042449951
-0.22621212899684906006
-0.03898632153868675232
0.19519129395484924316
-0.03994289040565490723
-0.10656029731035232544
-0.08033288270235061646
-0.04827793687582015991
0.15557707846164703369
-0.03803959861397743225
-0.01709685660898685455
-0.19066022336483001709
-0.03666345775127410889
-0.15901824831962585449
-0.09163672477006912231
0.19629223644733428955
0.02173830009996891022
0.18555542826652526855
-0.08676172792911529541
0.09113499522209167480
-0.08819414675235748291
-0.20661941170692443848
-0.05386509001255035400
0.00822825729846954346
-0.01417385414242744446
0.05339621007442474365
-0.08074239641427993774
-0.12043914198875427246
-0.04195415228605270386
-0.08359272032976150513
0.10008014738559722900
0.11314844340085983276
-0.05668088421225547791
0.17004893720149993896
-0.15456274151802062988
0.01202390622347593307
-0.12353760004043579102
0.10760597884654998779
-0.07993847131729125977
0.01773222535848617554
-0.26675021648406982422
-0.04183267802000045776
0.15187147259712219238
0.11810842901468276978
0.17120771110057830811
-0.20761066675186157227
-0.07739181816577911377
0.10944364964962005615
-0.13259258866310119629
-0.20482991635799407959
0.10599066317081451416
-0.25810205936431884766
0.02066020295023918152
-0.12297991663217544556
0.09663860499858856201
-0.16646070778369903564
-0.02722936868667602539
0.04192816093564033508
-0.15563338994979858398
0.04297877103090286255
0.12063615769147872925
0.19226458668708801270
-0.11869541555643081665
0.18117572367191314697
-0.15336298942565917969
0.20295430719852447510
0.20609503984451293945
-0.01480427384376525879
-0.20072834193706512451
0.12848886847496032715
-0.11453371495008468628
-0.06058913096785545349
0.13411433994770050049
-0.01981353946030139923
-0.08674705028533935547
-0.08308936655521392822
-0.05140970274806022644
-0.18372075259685516357
0.06310810148715972900
-0.15999954938888549805
0.09270797669887542725
-0.20879691839218139648
-0.20971485972404479980
0.06284413486719131470
0.12356982380151748657
-0.16233120858669281006
0.11889508366584777832
0.11730697751045227051
-0.11447267234325408936
0.03071740455925464630
-0.30369642376899719238
-0.04767986014485359192
-0.17649573087692260742
-0.21583025157451629639
0.02059028483927249908
-0.14255636930465698242
0.03060182556509971619
-0.07391287386417388916
0.07675176858901977539
-0.11097814887762069702
0.05786911398172378540
-0.03349088504910469055
0.08491703867912292480
-0.03135638311505317688
0.04733375832438468933
-0.08538074791431427002
0.04008704423904418945
0.12702950835227966309
-0.03914659097790718079
-0.17817877233028411865
0.13584163784980773926
0.18847769498825073242
-0.20265315473079681396
-0.11074105650186538696
0.05128979682922363281
-0.18452614545822143555
-0.00188047881238162518
-0.07484890520572662354
0.00999876949936151505
0.12818509340286254883
-0.15600638091564178467
0.10535080730915069580
-0.02738247066736221313
-0.20749609172344207764
0.11281208693981170654
-0.03679686412215232849
0.06897861510515213013
0.09845966845750808716
0.04728609696030616760
0.14992207288742065430
-0.06214850395917892456
0.17371457815170288086
-0.01159349083900451660
0.03338859602808952332
-0.14492750167846679688
0.17180785536766052246
-0.24498747289180755615
0.15457248687744140625
0.11100941896438598633
-0.12054926156997680664
0.02459513582289218903
0.09073583781719207764
0.08225084841251373291
-0.01080472487956285477
-0.23756369948387145996
-0.16218638420104980469
0.10942823439836502075
0.11549936234951019287
-0.08403700590133666992
-0.00745424581691622734
-0.15362519025802612305
-0.17666035890579223633
-0.05532592162489891052
0.01060514245182275772
-0.05474088713526725769
-0.16857211291790008545
0.20356531441211700439
-0.05131114274263381958
-0.09100701659917831421
-0.15875822305679321289
-0.15167860686779022217
0.07981241494417190552
-0.19044359028339385986
0.06173405051231384277
0.02024966850876808167
0.17247068881988525391
0.14496189355850219727
0.15057760477066040039
0.10410017520189285278
0.21899680793285369873
-0.02123132161796092987
0.16572043299674987793
-0.20350658893585205078
0.04468648880720138550
-0.09692033380270004272
-0.21378557384014129639
0.08492180705070495605
0.15530620515346527100
-0.20442581176757812500
-0.09353969991207122803
0.11309441179037094116
0.16737398505210876465
-0.13677386939525604248
-0.06882268190383911133
0.15606260299682617188
-0.06103323772549629211
0.07708595693111419678
0.11963856965303421021
0.09883804619312286377
0.14119142293930053711
0.02939394116401672363
0.13545006513595581055
0.18395814299583435059
-0.16636252403259277344
-0.03613318502902984619
-0.18041342496871948242
0.14132444560527801514
0.15562656521797180176
0.08081410080194473267
-0.20285777747631072998
-0.13812445104122161865
0.17899374663829803467
-0.04656612500548362732
0.18651165068149566650
0.02864560857415199280
-0.22802804410457611084
0.06459189206361770630
-0.13519518077373504639
-0.06480956822633743286
-0.18481817841529846191
0.12698177993297576904
0.14162592589855194092
-0.09346173703670501709
-0.13961319625377655029
0.08658175915479660034
0.01697064004838466644
-0.10477529466152191162
0.12517046928405761719
-0.17467732727527618408
0.05487987399101257324
0.24200715124607086182
-0.14673207700252532959
-0.25145569443702697754
-0.17168790102005004883
-0.13811711966991424561
0.05347388982772827148
-0.03887940198183059692
-0.16568987071514129639
-0.14742350578308105469
-0.16789822280406951904
0.11893540620803833008
0.17576275765895843506
0.02587698027491569519
-0.21621043980121612549
-0.02749737165868282318
0.07853034883737564087
0.06547419726848602295
-0.12264285981655120850
-0.20128940045833587646
0.07204439491033554077
-0.02978183701634407043
0.09933208674192428589
-0.05167154967784881592
0.17739942669868469238
-0.25172734260559082031
0.09299216419458389282
0.19395972788333892822
0.05942584574222564697
-0.03556721657514572144
0.08065591752529144287
0.15303094685077667236
-0.09258156269788742065
-0.13785377144813537598
0.05978008359670639038
-0.17248685657978057861
0.22731508314609527588
-0.16230395436286926270
0.07410944998264312744
-0.15884421765804290771
-0.19701102375984191895
0.04546186700463294983
-0.08053801953792572021
-0.14235828816890716553
-0.08977536112070083618
0.04533083736896514893
-0.20366439223289489746
0.18476215004920959473
0.15953198075294494629
0.14251275360584259033
