-0.00679553858935832977
-0.04666387289762496948
-0.03888464346528053284
0.11754699796438217163
-0.02442593313753604889
0.12251837551593780518
-0.00789181608706712723
-0.11097492277622222900
-0.06096244603395462036
-0.02164562046527862549
-0.02949935570359230042
-0.02408092841506004333
-0.00663072150200605392
-0.06674911081790924072
-0.11231269687414169312
-0.03291174024343490601
-0.04526848345994949341
-0.08042254298925399780
-0.00430860044434666634
-0.05877796560525894165
-0.03235999122262001038
-0.03947651386260986328
0.07896835356950759888
-0.02041910961270332336
0.02446385845541954041
-0.02479577809572219849
-0.03819155320525169373
-0.01754632592201232910
-0.06370569020509719849
0.02468849718570709229
-0.11892941594123840332
-0.00395123893395066261
0.04137051105499267578
0.04329979792237281799
0.04083893448114395142
0.04115148261189460754
-0.06159629672765731812
0.03951821103692054749
-0.01937972381711006165
0.04474317282438278198
0.04993883147835731506
0.06941921263933181763
-0.05242362990975379944
0.00801076646894216537
-0.04327533021569252014
0.01154781132936477661
0.09226273745298385620
0.02966500818729400635
0.00235913647338747978
-0.05870990827679634094
-0.06696463376283645630
-0.10087814927101135254
0.01030845195055007935
0.08473034203052520752
-0.04481742903590202332
0.00636550690978765488
-0.03921198844909667969
-0.04119364917278289795
0.02030762284994125366
0.04154171049594879150
0.05340691655874252319
-0.05181308835744857788
0.10436898469924926758
-0.05335551872849464417
0.02977665327489376068
0.04729443043470382690
0.00650364812463521957
0.06952153891324996948
-0.00863381195813417435
0.09695601463317871094
-0.01021411176770925522
0.09472327679395675659
-0.00526081956923007965
0.01526297722011804581
0.00840274710208177567
0.06770224124193191528
-0.06461367011070251465
0.01983061991631984711
0.04228937253355979919
0.04366264864802360535
-0.01087813079357147217
-0.03686145320534706116
-0.03798633441329002380
-0.04108143597841262817
-0.02809412404894828796
0.02829520590603351593
-0.02714704349637031555
0.01393561903387308121
-0.07262801378965377808
-0.01287387404590845108
0.00751570798456668854
0.04062989354133605957
-0.01774095930159091949
0.02281641960144042969
0.08604280650615692139
-0.01797290891408920288
-0.01696475036442279816
0.05309865623712539673
0.03122754767537117004
0.02361257188022136688
-0.04254207015037536621
0.07392499595880508423
0.01984752528369426727
0.00474449479952454567
0.03448570892214775085
0.02380534075200557709
-0.00651152525097131729
0.02582396753132343292
-0.05128044262528419495
0.02512563392519950867
0.07043324410915374756
0.02002524770796298981
-0.06233990937471389771
-0.03418225422501564026
-0.07692896574735641479
-0.08519868552684783936
-0.04799752309918403625
0.04437667131423950195
0.00382036832161247730
0.02088309079408645630
-0.02401796542108058929
-0.01220747455954551697
0.03678763285279273987
0.00758621655404567719
-0.02294447273015975952
0.04150584712624549866
0.05544427782297134399
-0.02675887569785118103
0.00763969309628009796
0.04363210871815681458
0.03037773631513118744
0.06862647831439971924
-0.00836115702986717224
0.05428873747587203979
0.03006548807024955750
0.03528310731053352356
-0.01149948593229055405
0.00466338777914643288
0.00117752805817872286
0.04091905802488327026
-0.07481667399406433105
0.03873709961771965027
0.03916554525494575500
0.00839493237435817719
-0.07553318887948989868
-0.05316373333334922791
-0.06824763119220733643
-0.09747304767370223999
-0.03366600349545478821
-0.01156993862241506577
0.01357955019921064377
-0.02476371079683303833
-0.04684501513838768005
-0.01286081038415431976
0.02320153266191482544
-0.05237081274390220642
-0.02158700302243232727
0.03066005557775497437
0.03337590023875236511
0.00913321319967508316
-0.01590251736342906952
-0.06089019030332565308
-0.08875317871570587158
-0.07126647233963012695
0.04047265276312828064
-0.00406234664842486382
0.06571014225482940674
-0.05035416036844253540
-0.04091075062751770020
-0.05436644330620765686
-0.04735261946916580200
-0.03557914495468139648
0.02426506951451301575
-0.03286477923393249512
-0.07397092878818511963
-0.03863435983657836914
-0.07007692009210586548
0.06275869160890579224
0.05507614091038703918
0.07785157859325408936
-0.03545171767473220825
-0.02596697397530078888
0.09784450381994247437
-0.01705003902316093445
0.08267534524202346802
0.03403182700276374817
-0.05858015641570091248
0.00177236099261790514
-0.01131942961364984512
0.01135816704481840134
-0.09598495066165924072
0.05079629272222518921
0.00993938185274600983
-0.00135259516537189484
-0.05385001748800277710
-0.09982560575008392334
0.01474060118198394775
-0.01754472963511943817
-0.01264305319637060165
0.10311627388000488281
-0.05039044842123985291
-0.07959261536598205566
0.03077331185340881348
0.01689434796571731567
-0.02028067596256732941
0.10054130852222442627
-0.01514263916760683060
-0.01955506764352321625
-0.06303202360868453979
0.12024696171283721924
0.01217099092900753021
0.05203427374362945557
-0.01698825880885124207
-0.05482688918709754944
-0.02756579220294952393
-0.02566384337842464447
-0.02953485772013664246
0.04424572736024856567
0.00922878645360469818
-0.00905706733465194702
-0.04515146464109420776
0.01993877999484539032
0.04026296362280845642
-0.00721434736624360085
0.03670755773782730103
0.02373870275914669037
-0.02512218430638313293
-0.04885007068514823914
0.03037011250853538513
-0.01260797772556543350
-0.00663335435092449188
0.04856647178530693054
-0.04264409467577934265
-0.02657479606568813324
0.00625671213492751122
0.02826294861733913422
-0.02055873721837997437
0.02213650569319725037
0.01162145566195249557
0.01914144121110439301
-0.05098291486501693726
-0.00469384249299764633
0.02647079154849052429
0.05741812288761138916
0.02657366357743740082
0.00488160317763686180
0.00065496144816279411
-0.04744871705770492554
-0.00328440265730023384
0.00645489990711212158
0.02434405125677585602
0.02194605022668838501
-0.01802530884742736816
0.03341761231422424316
0.03207264468073844910
0.03070386685431003571
0.02636091224849224091
0.02855224348604679108
0.01823222637176513672
-0.07228569686412811279
0.01160999294370412827
0.00103651394601911306
0.04699962586164474487
-0.03926832228899002075
-0.03697721287608146667
-0.04209452122449874878
0.01907177828252315521
0.02276810631155967712
-0.04557178914546966553
-0.02374142408370971680
0.04400039836764335632
-0.00066895375493913889
-0.01045747473835945129
-0.03487079963088035583
0.00446832785382866859
-0.03590387478470802307
0.00663647754117846489
0.00960191898047924042
0.05485590174794197083
-0.00512175913900136948
-0.02601987496018409729
-0.02773580141365528107
-0.01526674907654523849
-0.01604245975613594055
-0.05550840497016906738
0.03274302929639816284
0.03500820696353912354
0.04710414260625839233
0.00558732636272907257
0.00206773984245955944
-0.01660390011966228485
0.03656890988349914551
0.00781949236989021301
0.08388404548168182373
-0.02661854401230812073
0.00602756394073367119
-0.00283054029569029808
-0.00055278860963881016
0.02741301618516445160
-0.00230360589921474457
-0.06617701053619384766
0.04390288144350051880
-0.01139102224260568619
-0.00031030742684379220
-0.07257184386253356934
0.00320415198802947998
-0.05814492702484130859
-0.01080942433327436447
0.00458495598286390305
0.00345537415705621243
0.04149048775434494019
-0.01906840503215789795
-0.03823987394571304321
0.01118661928921937943
-0.01088894531130790710
-0.01611381024122238159
-0.04883418232202529907
0.04327195882797241211
0.02752541936933994293
-0.01385679189115762711
-0.03177376836538314819
-0.02134928852319717407
-0.03177152574062347412
0.15055447816848754883
0.01720797829329967499
0.15582482516765594482
-0.00043413726962171495
-0.08164424449205398560
-0.03557445481419563293
-0.05845654383301734924
0.03380136936902999878
-0.01255518849939107895
-0.00061118812300264835
-0.05756931379437446594
-0.08378253877162933350
-0.02551634237170219421
-0.05042005330324172974
-0.03745258599519729614
-0.02540003322064876556
-0.00448520854115486145
-0.03617360070347785950
-0.03911983966827392578
0.12047538161277770996
-0.01711887493729591370
0.02418019995093345642
0.03933613374829292297
-0.03298890963196754456
-0.03957233950495719910
-0.05695318058133125305
0.02991725690662860870
-0.11865130811929702759
0.01641273126006126404
-0.02920826524496078491
-0.03762947767972946167
-0.03076808899641036987
0.02664719149470329285
-0.04049829393625259399
0.03939725086092948914
-0.01530221756547689438
0.07822169363498687744
-0.02375533804297447205
-0.04385954886674880981
-0.00308119528926908970
-0.00574480276554822922
-0.09306188672780990601
-0.02839830145239830017
0.04080579057335853577
-0.06097458302974700928
-0.09154348075389862061
0.02820307575166225433
-0.08963175863027572632
-0.03182806074619293213
-0.03334724903106689453
-0.05837211012840270996
0.02577396109700202942
-0.01614791341125965118
-0.04919451102614402771
-0.05967193096876144409
0.00189857545774430037
-0.02621389739215373993
-0.06463959068059921265
0.05446492880582809448
0.02707014046609401703
-0.04230999946594238281
-0.02160756848752498627
-0.02327881008386611938
0.02603400684893131256
0.00688134878873825073
-0.03659323602914810181
0.00144359376281499863
-0.01546163950115442276
-0.06658754497766494751
0.02781031839549541473
-0.02437967434525489807
-0.01390268560498952866
-0.03325617685914039612
-0.03519984707236289978
-0.07210936397314071655
0.04895463958382606506
0.01095399074256420135
-0.03726252913475036621
-0.02946778945624828339
-0.00878917798399925232
-0.02899990230798721313
-0.00423131370916962624
0.04862615838646888733
0.01913827471435070038
0.02474919892847537994
-0.02484380267560482025
-0.03015699610114097595
-0.01827288977801799774
-0.02926852181553840637
-0.00877663679420948029
0.04272550344467163086
-0.00269298395141959190
0.01741751842200756073
0.00889566633850336075
0.02892128005623817444
0.08942379057407379150
0.05413732305169105530
-0.04706048965454101562
-0.01557644456624984741
-0.00896888971328735352
0.03285072743892669678
0.04688348248600959778
-0.00887435674667358398
-0.01346601359546184540
0.02783541567623615265
-0.01757362484931945801
-0.01208886690437793732
0.07440189272165298462
0.02063088677823543549
-0.03667962551116943359
-0.02422425709664821625
-0.04366753622889518738
-0.09985861927270889282
-0.05728499218821525574
0.03394438698887825012
-0.03303633257746696472
0.00617098249495029449
-0.06333001703023910522
-0.03624385967850685120
0.04595103859901428223
0.00226112012751400471
-0.00941885821521282196
-0.01885108649730682373
0.09586514532566070557
-0.05067384615540504456
-0.03048414178192615509
0.00847413949668407440
-0.04938891157507896423
-0.05908906459808349609
-0.05020800977945327759
0.04635152593255043030
-0.02349282801151275635
-0.00439677061513066292
-0.01828841865062713623
-0.01952354796230792999
-0.00524641247466206551
-0.00722903013229370117
-0.02253927104175090790
-0.00243876315653324127
0.00825977046042680740
-0.02805113606154918671
-0.01971709541976451874
0.00793249998241662979
-0.03632035106420516968
-0.02084188349545001984
-0.00385539908893406391
-0.03221279755234718323
-0.02004747092723846436
-0.01369823329150676727
-0.03704500943422317505
-0.03101422451436519623
-0.01622256450355052948
-0.01556014362722635269
-0.00929709151387214661
-0.01194090675562620163
0.04701762273907661438
-0.07420833408832550049
0.01623263396322727203
-0.00125833589117974043
0.02624733373522758484
-0.03039275296032428741
0.02050537802278995514
-0.03137975558638572693
0.01541448198258876801
-0.00451196264475584030
0.01482471264898777008
0.03807062655687332153
0.00604774849489331245
0.00148512434680014849
0.00094415963394567370
-0.02972302399575710297
0.02377314493060112000
0.00677851401269435883
0.01075166743248701096
-0.03062437660992145538
0.02219406142830848694
0.00610258337110280991
-0.00545810721814632416
0.03218289837241172791
0.03080231510102748871
0.01466329675167798996
0.00314284069463610649
0.02691058628261089325
-0.00174406729638576508
-0.01251414418220520020
0.01475185528397560120
0.04080232232809066772
0.00065566482953727245
0.01948110759258270264
0.02738245390355587006
0.03579162061214447021
-0.00501790735870599747
-0.05385871604084968567
0.01609226316213607788
0.04291051998734474182
0.02926697209477424622
0.01630670018494129181
0.00041395254083909094
-0.00767702748998999596
0.03519325703382492065
-0.00152435619384050369
-0.05858729034662246704
0.02374563924968242645
0.03334359824657440186
0.00275297695770859718
-0.08336503058671951294
0.01794198155403137207
0.01015372760593891144
0.01941637694835662842
-0.00241548893973231316
0.01363230962306261063
0.01923171803355216980
-0.02792176604270935059
-0.05204395949840545654
-0.01940521225333213806
-0.02398910745978355408
-0.01845123618841171265
-0.05352525785565376282
0.04006209224462509155
0.00215152534656226635
0.03907723352313041687
-0.00652704900130629539
0.02597813308238983154
0.04777277261018753052
0.06078293919563293457
-0.01014703419059514999
0.03346237167716026306
0.01035966817289590836
0.04557049646973609924
0.03729301318526268005
-0.03582030534744262695
0.04843963682651519775
0.05115557089447975159
-0.05067810043692588806
0.04756766185164451599
0.06101971492171287537
0.01515816524624824524
-0.01397474482655525208
-0.03518572449684143066
-0.03916705399751663208
-0.03750757873058319092
-0.03299410268664360046
-0.01021134108304977417
0.02807448990643024445
-0.03740792348980903625
-0.05911590531468391418
-0.00304719293490052223
0.04688497632741928101
-0.02357910387217998505
-0.01165311131626367569
0.00785811524838209152
0.03712921962141990662
-0.00475180707871913910
0.00029182841535657644
-0.01123193837702274323
-0.06556881219148635864
-0.07764499634504318237
0.03364967182278633118
-0.03233347460627555847
-0.00678042881190776825
0.07670063525438308716
-0.05082320794463157654
-0.05444702878594398499
-0.00503210676833987236
0.03199713304638862610
-0.07745427638292312622
0.03997603058815002441
0.00579617451876401901
-0.00655311718583106995
-0.06882514059543609619
0.04112267494201660156
-0.02101761288940906525
0.06271780282258987427
0.01336951088160276413
-0.02696006000041961670
0.00132897915318608284
-0.03140066936612129211
-0.02541941963136196136
0.04868047684431076050
-0.02559771016240119934
-0.01391399186104536057
-0.05219584330916404724
0.03810479491949081421
0.02249964699149131775
0.00306324101984500885
0.01423550862818956375
0.04334431514143943787
0.02750596590340137482
-0.00465118326246738434
0.03459731861948966980
0.03874304145574569702
0.01709476485848426819
0.06614512950181961060
-0.01026355009526014328
-0.04349803924560546875
-0.01759356446564197540
0.00435357121750712395
-0.06708464026451110840
0.02360238134860992432
0.00024542762548662722
-0.01378217991441488266
-0.09732270985841751099
-0.01844119839370250702
-0.01539413817226886749
-0.02436530962586402893
-0.05595533177256584167
-0.01805921457707881927
0.00644703488796949387
-0.00282399309799075127
-0.03458956629037857056
-0.04184750840067863464
0.03691663593053817749
0.00366863212548196316
-0.00486113550141453743
0.02029635943472385406
0.04328962787985801697
0.02352906018495559692
0.01951388455927371979
0.00340058212168514729
0.03009822405874729156
-0.03442507609724998474
0.03320184350013732910
0.00217869901098310947
0.02384499832987785339
0.01719069480895996094
0.01027019415050745010
0.01240137591958045959
-0.02376542426645755768
0.03580543398857116699
-0.05175749585032463074
0.00568662676960229874
0.04427147284150123596
-0.00571253057569265366
-0.06534714996814727783
-0.02942478843033313751
-0.01765303499996662140
-0.01557935029268264771
-0.02746542729437351227
0.01205439306795597076
0.00208411086350679398
-0.03436317294836044312
-0.02371774055063724518
0.00168578431475907564
0.03325179219245910645
0.01954000815749168396
-0.01116130594164133072
0.01610372774302959442
0.01124186441302299500
0.02311008609831333160
0.00753150228410959244
-0.00788864120841026306
-0.02125735208392143250
-0.00408125342801213264
0.00159507442731410265
0.05905117839574813843
0.02688156068325042725
-0.06077438592910766602
-0.03083734400570392609
0.00261573330499231815
-0.00517856748774647713
0.00482289120554924011
0.00612625852227210999
-0.04466309770941734314
-0.05574107915163040161
-0.01594025082886219025
0.01687665283679962158
-0.02215793356299400330
0.01390282344073057175
-0.00619408069178462029
0.03620363026857376099
-0.03313419595360755920
0.02382197976112365723
-0.01693285815417766571
0.02463437058031558990
-0.01003586407750844955
0.02197562344372272491
-0.00686377007514238358
0.00428123353049159050
0.01043414883315563202
-0.05325753614306449890
-0.00297548575326800346
-0.02692851983010768890
0.03966527059674263000
-0.04124090075492858887
-0.06256563961505889893
-0.03229843080043792725
0.02636580355465412140
-0.01249788608402013779
0.09575355052947998047
-0.03706415370106697083
-0.03480055928230285645
0.00164279667660593987
0.01632183417677879333
-0.04247196018695831299
0.02806216478347778320
0.03992654755711555481
-0.00518650189042091370
-0.02886473014950752258
0.01342552714049816132
-0.02171237766742706299
0.02818084321916103363
-0.01883957535028457642
-0.01845927163958549500
-0.03529152646660804749
-0.02643331326544284821
-0.01482829079031944275
0.00707054557278752327
0.02060096710920333862
-0.02968518249690532684
-0.09170617163181304932
0.05333910137414932251
0.09389957785606384277
-0.02775484882295131683
-0.00642109662294387817
-0.00275625125505030155
0.00558609701693058014
-0.02527299337089061737
-0.01560082472860813141
0.00935369729995727539
0.03499284759163856506
0.00700774090364575386
-0.00065792334498837590
-0.02100232988595962524
0.02615477703511714935
0.04870245605707168579
-0.01404914818704128265
-0.01818626932799816132
0.02744509465992450714
0.01901060156524181366
-0.02745430730283260345
0.02799571678042411804
0.03995752334594726562
0.01206970121711492538
0.00373899657279253006
0.01289472728967666626
0.00631859852001070976
-0.04008953645825386047
0.01046400796622037888
0.00127769459504634142
0.00638932269066572189
0.01859761588275432587
-0.00411315774545073509
-0.00081856967881321907
0.04364419355988502502
0.02052025124430656433
0.00191453134175390005
0.06021713837981224060
0.04765564203262329102
0.03771972283720970154
-0.03319726884365081787
0.05930125340819358826
-0.01891370117664337158
0.01413791812956333160
0.02682732045650482178
0.01727978512644767761
-0.03075863793492317200
0.01122749969363212585
-0.06704980134963989258
0.01800497807562351227
0.06753365695476531982
-0.01050338707864284515
-0.08109681308269500732
-0.01765118353068828583
-0.09468185901641845703
-0.06839415431022644043
-0.00286626513116061687
0.02266481705009937286
0.00368828373029828072
-0.00673063844442367554
-0.04834786802530288696
-0.01979130506515502930
0.00175373884849250317
0.00447808904573321342
-0.00508301658555865288
0.01229145843535661697
0.06464000046253204346
0.01521893031895160675
0.01598710753023624420
-0.01419583335518836975
-0.07740527391433715820
-0.03721534833312034607
-0.00577168073505163193
0.03326034173369407654
-0.00292289606295526028
0.07675252854824066162
-0.04576413333415985107
-0.06083303317427635193
-0.01966916397213935852
0.01847673021256923676
-0.11033250391483306885
0.02737171016633510590
0.02308204770088195801
-0.05145668238401412964
-0.09221953153610229492
0.07042708247900009155
-0.05840060114860534668
-0.00425971718505024910
-0.03921762481331825256
-0.06011644378304481506
0.04700668901205062866
-0.03663443773984909058
-0.06404731422662734985
-0.00198438949882984161
-0.03014128468930721283
-0.03586727008223533630
-0.08234429359436035156
0.04245282709598541260
0.06854577362537384033
0.03069962933659553528
0.00426186947152018547
-0.00945807341486215591
-0.05693587288260459900
-0.04651070386171340942
-0.00228535593487322330
-0.01677807234227657318
-0.00129523384384810925
0.07154210656881332397
-0.06880548596382141113
-0.02138294279575347900
0.01575072668492794037
0.03487053140997886658
-0.07713606208562850952
0.02927557937800884247
0.02085731923580169678
-0.01362816523760557175
-0.05895675346255302429
0.04307795315980911255
-0.03206372633576393127
0.02708151564002037048
-0.00235375296324491501
-0.07322601974010467529
0.02874536439776420593
-0.00768777169287204742
-0.03429837524890899658
-0.00217914232052862644
-0.03218054026365280151
-0.00776535505428910255
-0.03908833116292953491
0.03468030318617820740
0.04495404288172721863
0.02557658590376377106
0.02223045006394386292
-0.01231735851615667343
0.01070050615817308426
-0.03868377208709716797
0.02710232697427272797
0.01296744961291551590
0.04057364910840988159
0.00702586304396390915
0.00424362299963831902
-0.01325902156531810760
0.01884463615715503693
0.03604124858975410461
-0.05503183975815773010
-0.00363568123430013657
0.05099727958440780640
0.02012735791504383087
-0.04350435361266136169
0.03017891384661197662
-0.03683964908123016357
0.02405353076756000519
-0.01283796690404415131
0.01009672414511442184
0.04970424994826316833
-0.02462380379438400269
-0.00542643666267395020
-0.01149393990635871887
-0.00548213999718427658
-0.03600209951400756836
-0.05450034141540527344
0.02458947896957397461
0.02380846813321113586
0.00950591079890727997
0.01217033620923757553
0.00609151320531964302
-0.00620248774066567421
-0.01915333978831768036
-0.01212651189416646957
0.03454445675015449524
0.01202247198671102524
0.05679541826248168945
-0.02808385528624057770
-0.01294798403978347778
0.02570826560258865356
0.03015189804136753082
-0.05575254186987876892
0.02041097730398178101
0.04127735644578933716
0.00518118357285857201
-0.08784239739179611206
0.03586727753281593323
-0.04827629774808883667
-0.03214024752378463745
-0.04228643327951431274
-0.02882484905421733856
0.04285506531596183777
0.00281732762232422829
-0.00724712712690234184
0.00914603099226951599
-0.00554439332336187363
-0.00618203822523355484
-0.01274553127586841583
0.06240113452076911926
-0.00214984640479087830
0.01324751880019903183
-0.01032243762165307999
0.04067688435316085815
-0.01655237935483455658
0.00424603465944528580
0.01795946061611175537
0.05307248234748840332
0.00733270077034831047
0.04842536523938179016
0.01734360121190547943
-0.00918110366910696030
-0.01472563482820987701
0.02873773686587810516
-0.07389557361602783203
0.01807737909257411957
0.02001705020666122437
0.02727922052145004272
-0.03727059066295623779
-0.02394848875701427460
-0.01796715520322322845
0.00023847445845603943
0.00444195512682199478
-0.01572520472109317780
0.02720277383923530579
-0.03588017821311950684
-0.05056517571210861206
-0.01107931137084960938
0.03797403723001480103
0.01129377353936433792
-0.01872895471751689911
0.02072849683463573456
0.01891396008431911469
0.00630773324519395828
0.02693281881511211395
0.02710323221981525421
-0.04657544568181037903
-0.01074327249079942703
0.00533039495348930359
-0.00967337563633918762
0.02284616976976394653
0.02561125904321670532
-0.04066687822341918945
-0.07047224044799804688
0.00259109470061957836
0.04534073919057846069
-0.06375598162412643433
0.01599547453224658966
0.05380112305283546448
0.00878348201513290405
-0.08337362110614776611
0.04865439236164093018
-0.03198257833719253540
-0.01757346466183662415
-0.05153140053153038025
-0.04430088028311729431
0.04337789490818977356
-0.05738537013530731201
-0.05853810533881187439
-0.01745243556797504425
0.02659130096435546875
0.01673632115125656128
-0.05903430655598640442
0.03557814285159111023
0.03767065331339836121
-0.00897079147398471832
0.03875593096017837524
0.00221564504317939281
0.01466918271034955978
0.00021310761803761125
-0.00983985140919685364
0.01882385276257991791
-0.02160921320319175720
0.05544583126902580261
-0.02547535672783851624
-0.01811138540506362915
0.03096131049096584320
0.00648714927956461906
-0.05767342820763587952
0.02256325632333755493
-0.00008858515502652153
0.01741907373070716858
-0.06261591613292694092
-0.01984910294413566589
-0.00379471760243177414
0.00131487962789833546
-0.03494152799248695374
-0.01601218059659004211
0.00453877216205000877
-0.01303270086646080017
-0.06237893551588058472
-0.03298494964838027954
-0.00356958387419581413
-0.02926038019359111786
-0.01571978256106376648
0.05579060316085815430
0.02623372897505760193
-0.01621718518435955048
-0.09831728786230087280
-0.07072805613279342651
-0.04627213627099990845
0.07876135408878326416
-0.04859563708305358887
0.10833284258842468262
0.00481862109154462814
-0.05177344381809234619
-0.09519043564796447754
-0.10440447181463241577
-0.03747788444161415100
-0.05101109296083450317
0.04383435100317001343
-0.10457891225814819336
-0.05233834683895111084
-0.07417933642864227295
-0.05731827020645141602
-0.01247304957360029221
-0.00781322829425334930
-0.05437780916690826416
-0.05304406955838203430
-0.07501567900180816650
0.02685254998505115509
0.03392909467220306396
0.07163840532302856445
-0.02237565629184246063
-0.02030544914305210114
-0.05157933384180068970
-0.04037554934620857239
0.05959919095039367676
-0.05973205715417861938
-0.02122106403112411499
-0.00466024642810225487
0.03424848243594169617
0.02254821546375751495
0.05644445121288299561
-0.05968353524804115295
-0.03530936315655708313
-0.02577309310436248779
0.01474569737911224365
0.03062233515083789825
0.03246446698904037476
-0.02280022390186786652
-0.00118521938566118479
-0.04709810018539428711
-0.06686971336603164673
-0.01083369925618171692
-0.00117928721010684967
0.07297768443822860718
-0.06859461218118667603
-0.05022651702165603638
-0.07405231148004531860
0.00716676283627748489
0.07567765563726425171
-0.08253776282072067261
0.06090032681822776794
-0.07597173005342483521
-0.06020846217870712280
-0.02597580477595329285
-0.01159151550382375717
0.04049340635538101196
-0.03643376007676124573
-0.00883832387626171112
-0.05404485389590263367
-0.00689032999798655510
0.01904199086129665375
0.05662385374307632446
0.12483265250921249390
-0.02148225344717502594
0.07562511414289474487
-0.03359341248869895935
-0.05593739077448844910
0.04875739663839340210
0.01171154994517564774
0.02749820426106452942
-0.03526073694229125977
-0.04910255223512649536
-0.02818836458027362823
-0.00853724963963031769
0.00681251240894198418
-0.02137970738112926483
-0.04158129543066024780
-0.05537176132202148438
-0.02278998494148254395
-0.00773857301101088524
0.02525091916322708130
-0.01312201749533414841
0.03010520152747631073
-0.05941156670451164246
-0.03264729678630828857
0.02322370372712612152
-0.00837605912238359451
0.05487247556447982788
-0.01576222479343414307
-0.03520937636494636536
-0.05108229070901870728
0.02539861761033535004
0.00585687626153230667
0.02644724026322364807
0.08752278983592987061
-0.01552239712327718735
0.01661937311291694641
0.00821832381188869476
-0.06121669337153434753
0.04527389258146286011
0.01643784716725349426
-0.04744157195091247559
-0.02890222147107124329
-0.00778112979605793953
-0.06234631314873695374
-0.01383511256426572800
0.03808835521340370178
0.02268568798899650574
-0.02367949299514293671
-0.04781951382756233215
-0.04004700109362602234
0.02013990283012390137
0.02592671290040016174
0.00280493893660604954
0.03307753056287765503
-0.02866058982908725739
-0.03882793337106704712
0.00846095383167266846
0.00622722879052162170
0.01725813187658786774
-0.01754233241081237793
-0.03910793736577033997
0.03238867595791816711
-0.00769228860735893250
0.00227563618682324886
0.03593666851520538330
0.04282586649060249329
0.00143484945874661207
0.08526264876127243042
0.02805853821337223053
0.00777732627466320992
-0.01103014033287763596
-0.00649004057049751282
-0.01914729364216327667
-0.00060425128322094679
-0.06976404786109924316
0.00290689920075237751
0.01257933210581541061
-0.03683834895491600037
-0.01195152755826711655
-0.02588644251227378845
-0.08392453193664550781
-0.10707611590623855591
-0.01875294744968414307
0.00721252709627151489
-0.00884905736893415451
0.03362518548965454102
-0.05524780973792076111
-0.05118741467595100403
-0.01212382968515157700
-0.00671196356415748596
-0.04136453941464424133
0.05196127295494079590
-0.00480922404676675797
-0.00706866616383194923
-0.03015451133251190186
-0.04515188187360763550
-0.07707214355468750000
-0.06088445708155632019
0.06265768408775329590
-0.01097637601196765900
0.01865704730153083801
-0.06337583065032958984
-0.02837099321186542511
0.01791398972272872925
-0.01014196407049894333
-0.02938407287001609802
-0.03026907332241535187
-0.01645516231656074524
-0.06135703995823860168
-0.00479121133685112000
-0.02852082811295986176
0.00908401980996131897
0.04034848511219024658
0.11075357347726821899
0.01632982678711414337
0.00170737493317574263
0.11958535015583038330
-0.04541292414069175720
0.03637580201029777527
0.03091280162334442139
-0.04805064946413040161
0.02261721156537532806
-0.04787153750658035278
-0.00344394845888018608
-0.07384034246206283569
0.07272023707628250122
0.03192719817161560059
0.01344662718474864960
-0.03569224849343299866
-0.06046062335371971130
-0.05702302977442741394
0.02940211817622184753
0.00705144042149186134
0.13425077497959136963
-0.00570149905979633331
-0.07259751111268997192
0.03260127827525138855
0.03698013350367546082
-0.07068707793951034546
0.09066280722618103027
0.05802089348435401917
-0.03036747500300407410
-0.01454544719308614731
0.05874354019761085510
-0.02745323814451694489
0.04098184034228324890
-0.03499076887965202332
-0.02266710810363292694
-0.07180308550596237183
0.01575802452862262726
-0.04445102810859680176
0.03574227541685104370
-0.01808479428291320801
0.01138317584991455078
-0.07893989235162734985
0.00542791001498699188
0.07154293358325958252
-0.06946609914302825928
-0.00035067123826593161
-0.01356553006917238235
0.02208773046731948853
0.00506020896136760712
0.03587000444531440735
0.00694960542023181915
0.03989145532250404358
0.01830248534679412842
-0.02129157632589340210
-0.01606863550841808319
0.02969791740179061890
0.01444570068269968033
-0.00694530783221125603
0.02821744605898857117
0.01296206004917621613
0.02430419437587261200
-0.01255115121603012085
-0.00019522111688274890
-0.01317612640559673309
0.00379418162629008293
0.00424427818506956100
0.04306347295641899109
0.04558221995830535889
0.00481445621699094772
-0.05864792689681053162
0.00982076674699783325
0.03343924507498741150
-0.00618809554725885391
0.00284978095442056656
0.00136560318060219288
-0.03015979565680027008
0.05205153673887252808
-0.00909256003797054291
-0.00637961877509951591
-0.00641612615436315536
-0.00791977252811193466
0.01257156208157539368
-0.01424446422606706619
0.02390588819980621338
-0.07853106409311294556
-0.00368258170783519745
0.02830980345606803894
-0.04099886491894721985
-0.03982148319482803345
-0.03411121293902397156
-0.07116770744323730469
-0.01257688831537961960
0.03420183062553405762
-0.00560951838269829750
-0.04165786877274513245
-0.02645693719387054443
-0.00142911681905388832
0.01775448583066463470
0.00241964682936668396
0.07933730632066726685
0.00610206183046102524
-0.01832870207726955414
0.00118333380669355392
-0.02555046416819095612
0.03339277580380439758
-0.00911902356892824173
0.03826889023184776306
-0.02992672286927700043
0.04123764485120773315
0.02749794535338878632
0.03183924406766891479
0.03391835838556289673
0.07103446871042251587
0.02588636800646781921
0.03779891505837440491
-0.01230491697788238525
-0.00318873720243573189
-0.00452109426259994507
-0.00505436491221189499
-0.02213252894580364227
-0.01660366915166378021
-0.08233261108398437500
-0.01563374884426593781
0.02154348790645599365
-0.01028171367943286896
-0.01428096462041139603
-0.02499584294855594635
-0.06387238204479217529
-0.06552123278379440308
-0.01274627074599266052
0.01912961713969707489
0.03073697350919246674
-0.00674757361412048340
-0.04865832254290580750
-0.02520782314240932465
0.01322949584573507309
-0.00129419146105647087
-0.02703787200152873993
0.01708352193236351013
0.00978977326303720474
0.02439252845942974091
-0.05179658904671669006
-0.03444529697299003601
-0.04481866955757141113
0.11790452152490615845
-0.02686137333512306213
0.09913253039121627808
0.02211703732609748840
-0.03873120620846748352
-0.07994490861892700195
-0.05265099927783012390
-0.02184640616178512573
-0.00607456313446164131
-0.00825039483606815338
-0.07360744476318359375
-0.03017526492476463318
-0.02773893065750598907
-0.10531306266784667969
-0.05716610327363014221
0.00587695837020874023
-0.04569534212350845337
-0.04797003790736198425
-0.08025539666414260864
0.07613825052976608276
0.03172349184751510620
0.06420022994279861450
-0.02139558084309101105
-0.00325421523302793503
-0.06960276514291763306
-0.09390222281217575073
0.05494074895977973938
-0.06168169900774955750
-0.01544977910816669464
-0.00274993060156702995
0.00309451879002153873
0.00923346728086471558
0.05167089402675628662
-0.01132745202630758286
0.04296144470572471619
0.01098319701850414276
0.01374491397291421890
0.00446921773254871368
-0.01343492697924375534
0.00363980908878147602
0.00635398924350738525
-0.06948999315500259399
-0.03590757772326469421
0.02847802452743053436
-0.03417377546429634094
-0.07556090503931045532
0.01011002436280250549
-0.09168909490108489990
-0.04739427193999290466
-0.02664746157824993134
-0.02342419698834419250
0.03977865725755691528
-0.02637317590415477753
-0.03016095794737339020
-0.02756413258612155914
0.01575938425958156586
-0.05811104550957679749
-0.02829860150814056396
0.09245238453149795532
0.07544511556625366211
-0.01279099099338054657
-0.01437069941312074661
-0.01583711802959442139
0.00936266873031854630
0.01545669883489608765
-0.00623862678185105324
-0.00217862543649971485
0.00715191708877682686
-0.05877510830760002136
0.00963468197733163834
0.06838148832321166992
-0.04007159546017646790
-0.01619170047342777252
-0.03261688724160194397
-0.04583932086825370789
-0.03089094720780849457
0.02905254252254962921
0.03051453456282615662
0.00317239575088024139
-0.02857446298003196716
-0.02108338661491870880
-0.01721326448023319244
0.03245240449905395508
0.03439494967460632324
0.00808636378496885300
-0.03485567495226860046
-0.00169388984795659781
-0.01739440672099590302
-0.01114045642316341400
0.05447511002421379089
0.01547616627067327499
-0.06844521313905715942
0.00253554619848728180
-0.02034718170762062073
0.02654980681836605072
0.05284175276756286621
0.04876077920198440552
-0.06717515736818313599
0.00805070251226425171
-0.01242829021066427231
-0.03806181997060775757
0.03695508465170860291
0.07556781172752380371
-0.04420075938105583191
0.01481264736503362656
-0.04180566594004631042
-0.00888198334723711014
0.01554401777684688568
-0.00308093312196433544
0.01274826750159263611
-0.05911692231893539429
-0.02379498258233070374
-0.09077811241149902344
0.00169893552083522081
0.07735233753919601440
0.00675534177571535110
0.05642243102192878723
-0.05033260956406593323
-0.06879262626171112061
0.01699580252170562744
0.00337166478857398033
0.02147640660405158997
-0.00370313739404082298
0.03060548007488250732
-0.04391668736934661865
-0.00625462317839264870
-0.00050888734403997660
-0.03497811779379844666
-0.07256720215082168579
-0.05845212563872337341
0.03531725332140922546
0.00833441223949193954
0.01538502518087625504
0.00679690390825271606
-0.00826735887676477432
-0.00250021787360310555
-0.02145581133663654327
0.00699066510424017906
-0.03236638754606246948
0.02095820754766464233
-0.00719156861305236816
0.00038717483403161168
0.00375423813238739967
-0.03962294012308120728
-0.04663736745715141296
0.02013732865452766418
0.01572910510003566742
-0.06164127960801124573
-0.04298312589526176453
-0.00497453939169645309
-0.02464247681200504303
0.01848560199141502380
-0.01145865675061941147
0.01676325500011444092
0.02209374122321605682
0.00057972106151282787
-0.02507038041949272156
-0.02366283163428306580
-0.02512798272073268890
0.02010829374194145203
-0.01224738731980323792
0.00091350206639617682
0.00014618178829550743
0.00031459450838156044
-0.02794350124895572662
0.02115109749138355255
0.05309413373470306396
-0.01159851159900426865
-0.04636695235967636108
-0.04955476894974708557
-0.02484608255326747894
-0.06189432740211486816
0.02788252942264080048
0.03488985821604728699
-0.05803601816296577454
0.04366932064294815063
-0.01170815620571374893
0.00325045431964099407
0.05664383992552757263
0.06597942113876342773
-0.00197082571685314178
-0.03113759495317935944
-0.01095828041434288025
-0.01956645399332046509
0.01778551004827022552
0.05512119084596633911
-0.02594083733856678009
-0.03832320123910903931
0.04889526590704917908
0.01467925310134887695
-0.01779839769005775452
0.01220901031047105789
0.02312576211988925934
0.01962680928409099579
0.01750240474939346313
0.03657286241650581360
0.01137872785329818726
0.01184766832739114761
0.00411762995645403862
0.02753296494483947754
-0.01141608227044343948
-0.07152800261974334717
0.02031465247273445129
0.01594209298491477966
0.03374539315700531006
-0.04825327172875404358
-0.02548674307763576508
-0.04137957096099853516
-0.04119196906685829163
-0.01003725826740264893
0.02104751206934452057
0.03333698213100433350
0.01093821786344051361
-0.06645489484071731567
-0.01805602759122848511
-0.01701030507683753967
0.01151019986718893051
0.02009572647511959076
0.01263294462114572525
0.01315919682383537292
0.03999329358339309692
0.01104678772389888763
0.03442452102899551392
0.02379479259252548218
0.03918485715985298157
0.00716759636998176575
0.01978766918182373047
0.01245130319148302078
-0.00621068198233842850
0.00539955589920282364
-0.02256862819194793701
0.01313273515552282333
-0.00098614185117185116
-0.04786755517125129700
-0.02259243465960025787
0.02583120390772819519
-0.02519711293280124664
0.01483210735023021698
-0.05817839503288269043
-0.05739933624863624573
-0.03147310763597488403
-0.03293287381529808044
-0.00318707595579326153
-0.03021570295095443726
-0.00733127444982528687
-0.01160450372844934464
-0.05406526476144790649
0.01855942979454994202
-0.02979753352701663971
-0.01307971682399511337
0.01410242263227701187
0.00655888346955180168
-0.01378382090479135513
-0.00240514986217021942
0.02452741749584674835
-0.01933467760682106018
-0.02122651226818561554
0.05851926654577255249
-0.01700443588197231293
-0.00315851578488945961
0.02392751537263393402
0.01115463487803936005
-0.04968480393290519714
0.01447153277695178986
0.04699201509356498718
-0.02457379549741744995
0.01593142934143543243
0.01012922357767820358
0.00854406412690877914
-0.04581411555409431458
0.00265766982920467854
-0.01757621392607688904
0.01451604720205068588
-0.03497103229165077209
0.00141106476075947285
0.00346343335695564747
-0.01939957588911056519
-0.02856794372200965881
-0.00851082056760787964
-0.02153027988970279694
0.02682156674563884735
-0.02301306091248989105
0.04335424676537513733
0.05620996654033660889
-0.01079402212053537369
0.02549638599157333374
0.02304947748780250549
0.01278460398316383362
0.05402607098221778870
0.00284545589238405228
0.00010678745456971228
-0.01764484122395515442
-0.00966837350279092789
0.01139396335929632187
0.00102304539177566767
0.00499156024307012558
0.01391591504216194153
-0.02893790975213050842
0.01328633446246385574
0.00172135746106505394
-0.01423396356403827667
-0.00848915800452232361
-0.04174350947141647339
-0.05263132974505424500
-0.04735161736607551575
-0.04432557150721549988
0.02056361734867095947
0.03755982592701911926
0.03823323920369148254
-0.06004981324076652527
-0.01054393406957387924
0.00335332984104752541
0.00666902074590325356
0.01157275959849357605
0.03342542797327041626
-0.01906651258468627930
0.04840932413935661316
-0.00169372640084475279
-0.01393026486039161682
0.01684285514056682587
-0.00275334948673844337
0.06762341409921646118
0.03129506111145019531
0.03035524860024452209
-0.02929604426026344299
0.02093920856714248657
0.03177911043167114258
0.01850299350917339325
-0.01988548785448074341
-0.02006408385932445526
-0.02153977565467357635
-0.03006762452423572540
0.00875431671738624573
0.00348876533098518848
-0.06355063617229461670
-0.02280689030885696411
-0.03154500946402549744
-0.01982214115560054779
0.04682674631476402283
0.06099911779165267944
0.00510618276894092560
-0.06369405239820480347
-0.03324942290782928467
0.00850693788379430771
0.03373024985194206238
0.01877710968255996704
0.01942443661391735077
-0.02907315082848072052
0.06780648976564407349
-0.01173468027263879776
-0.02593706361949443817
0.00134792621247470379
-0.03602525964379310608
-0.01648170314729213715
0.05700458213686943054
0.01204655785113573074
-0.03087389469146728516
0.00496695889160037041
-0.04043008759617805481
0.02524025924503803253
-0.01526141446083784103
0.02409137226641178131
-0.06118936836719512939
-0.02466710098087787628
-0.01971840672194957733
0.01526867039501667023
-0.02346582897007465363
0.00760609610006213188
-0.03870167210698127747
0.03169547393918037415
0.00210325093939900398
0.01680484414100646973
-0.01030689477920532227
-0.00145168276503682137
0.01422140654176473618
-0.01495995558798313141
-0.02135337702929973602
-0.01730113476514816284
0.05645216256380081177
-0.00985175184905529022
-0.02990241721272468567
0.03531086072325706482
0.00095641682855784893
-0.01396331842988729477
-0.06029953062534332275
-0.03173914551734924316
0.02319480292499065399
0.01704608649015426636
0.04922264069318771362
0.02311758697032928467
-0.00236105150543153286
0.01936348713934421539
0.02516011893749237061
-0.00975062418729066849
0.06915688514709472656
0.06398215144872665405
-0.00499665969982743263
-0.02598394080996513367
0.02414392493665218353
0.00742883235216140747
0.02745851688086986542
-0.01058355160057544708
0.02347321808338165283
-0.03487017378211021423
-0.02687143534421920776
-0.02291448414325714111
-0.00186993309762328863
0.03961968794465065002
0.01965538971126079559
-0.01088038645684719086
0.06337909400463104248
0.09545652568340301514
-0.03964120522141456604
0.00940926931798458099
0.03764338046312332153
0.01666633225977420807
-0.01736926846206188202
0.00106471253093332052
0.00614062650129199028
0.00210014474578201771
-0.04837271571159362793
0.00021669678972102702
0.00602442258968949318
0.00561489071696996689
-0.00502873118966817856
0.04169049486517906189
0.00841621961444616318
0.03913804516196250916
0.04306178912520408630
-0.03116908855736255646
-0.00303195626474916935
-0.00808968022465705872
0.02951667457818984985
-0.00885643530637025833
0.05685613304376602173
0.00236091809347271919
0.02235575392842292786
-0.00722136441618204117
-0.01596970856189727783
0.00390077778138220310
0.00037058617454022169
-0.01156972348690032959
0.01791054569184780121
0.04321987554430961609
0.00769038684666156769
0.03255037218332290649
0.02428222820162773132
0.05107575282454490662
0.09009862691164016724
-0.02895966544747352600
0.07706338912248611450
-0.01401867717504501343
-0.01968692056834697723
0.03160941600799560547
0.02823430113494396210
-0.03106816485524177551
-0.02124341577291488647
0.00160283711738884449
-0.00477900542318820953
0.03610807284712791443
0.03033794090151786804
0.01076534856110811234
-0.05003985017538070679
-0.08499824255704879761
-0.07278037816286087036
0.00437471503391861916
0.04907637834548950195
0.03718340024352073669
0.02803373150527477264
-0.00973781105130910873
-0.06925462931394577026
0.03458666801452636719
0.01078042853623628616
0.01371169928461313248
-0.02059843018651008606
0.03360985964536666870
-0.00873965956270694733
0.01466259453445672989
-0.00147993559949100018
0.00671636918559670448
0.00082480738637968898
0.01690407842397689819
0.02836114913225173950
0.00129336188547313213
0.05030779540538787842
-0.04139977321028709412
-0.03153790161013603210
0.00465807784348726273
-0.01945328153669834137
-0.05447427928447723389
0.04720466956496238708
0.02260283194482326508
-0.03488579392433166504
-0.02665919810533523560
-0.03225576505064964294
-0.03615032136440277100
-0.00347456545569002628
-0.03542062267661094666
0.01621328294277191162
0.05546639859676361084
-0.03170327097177505493
-0.09961733222007751465
-0.05183089897036552429
-0.01728967390954494476
-0.00950032752007246017
-0.00785084534436464310
0.05141919478774070740
0.01358571369200944901
0.01909685879945755005
0.03074648045003414154
-0.01745881699025630951
-0.05182638764381408691
-0.04226990416646003723
0.02997311390936374664
0.02390291169285774231
0.02657378092408180237
0.04593718051910400391
-0.03252490237355232239
-0.03308128193020820618
0.04218524321913719177
0.00463271094486117363
-0.05666218698024749756
0.02789070643484592438
0.04656901583075523376
0.02612460963428020477
-0.02983555942773818970
0.01696277037262916565
-0.00858050398528575897
0.00302204326726496220
-0.05093299970030784607
-0.03452008217573165894
0.02265427075326442719
-0.04565360769629478455
-0.06862312555313110352
0.01190077979117631912
-0.01931801810860633850
-0.00778441457077860832
-0.04922038316726684570
0.00627459073439240456
0.04777824878692626953
-0.00289201899431645870
-0.01432499475777149200
0.02173865586519241333
0.01369183696806430817
0.01138375420123338699
0.00072903191903606057
0.01614647917449474335
-0.00871587730944156647
-0.01208268105983734131
0.02629965916275978088
0.00099508441053330898
-0.00414668302983045578
-0.00351634342223405838
-0.04281098768115043640
0.02596295066177845001
0.00012889468052890152
0.02161996811628341675
-0.01870802789926528931
-0.02632607147097587585
-0.01451007463037967682
-0.02134752459824085236
-0.02271815761923789978
-0.01161941420286893845
0.00680010905489325523
-0.01480741053819656372
-0.02890065871179103851
-0.03381296992301940918
0.01709641329944133759
0.01431570574641227722
-0.02029309235513210297
0.03758454695343971252
-0.00296428380534052849
0.04681387543678283691
0.02877999655902385712
-0.01696336455643177032
-0.01003395672887563705
0.02450149692595005035
-0.00107001629658043385
0.03371994197368621826
-0.02314684540033340454
0.00058863096637651324
-0.01741725765168666840
-0.02538932114839553833
0.01890899986028671265
0.00593633670359849930
-0.05805984139442443848
0.01799117960035800934
0.02780498377978801727
-0.02345615997910499573
-0.02915459126234054565
-0.00257006334140896797
-0.04013835266232490540
-0.02303870581090450287
-0.05128477141261100769
-0.01835290156304836273
0.02611781097948551178
0.00665681995451450348
-0.05892584472894668579
-0.03325960412621498108
-0.01770603843033313751
-0.03190285339951515198
-0.04541635885834693909
0.03570579737424850464
0.03889908641576766968
0.00569609878584742546
0.00497823720797896385
-0.00987706333398818970
0.04200837016105651855
0.05262750014662742615
0.02832372859120368958
0.03074776381254196167
0.03273025900125503540
-0.04798337072134017944
0.04016220197081565857
0.04325860738754272461
0.01663540117442607880
-0.01713175699114799500
-0.02107909135520458221
-0.02172673121094703674
0.01228502579033374786
0.02727229148149490356
-0.03564743697643280029
-0.01654127985239028931
-0.00955346785485744476
-0.03926494345068931580
-0.03689660876989364624
0.02190604992210865021
0.00069333479041233659
0.01862292550504207611
-0.02603772655129432678
0.00127177627291530371
-0.00633298791944980621
-0.00763016520068049431
-0.00425102608278393745
-0.00594164617359638214
-0.02430319786071777344
-0.00200202735140919685
0.03884087502956390381
0.00724727055057883263
-0.00094932876527309418
0.02307361923158168793
-0.00662978505715727806
0.05514166876673698425
-0.01281398627907037735
0.00450849952176213264
-0.01700889319181442261
0.00603703130036592484
-0.00754951313138008118
0.03598037734627723694
-0.06424669921398162842
-0.01306086685508489609
0.04972616210579872131
0.00266930554062128067
-0.05718418583273887634
-0.03343885764479637146
-0.02505376189947128296
-0.04577502235770225525
-0.03323527798056602478
0.02141739055514335632
0.02933085896074771881
-0.01807577535510063171
-0.07738474011421203613
-0.04918590560555458069
-0.00034361801226623356
0.00229285517707467079
-0.03802233561873435974
0.05131028220057487488
0.03556874766945838928
0.03536886349320411682
-0.01303283311426639557
0.01471847575157880783
0.00355667411349713802
0.04333855211734771729
0.03312645480036735535
0.05842050164937973022
0.03676237165927886963
0.03139754012227058411
-0.01486218161880970001
0.01674677245318889618
0.00232062139548361301
0.02701095119118690491
-0.03072606772184371948
-0.01321056671440601349
0.04134082421660423279
0.02890166640281677246
-0.06710555404424667358
-0.03915999084711074829
-0.02310160547494888306
0.00344007764942944050
-0.04460517689585685730
0.00177244096994400024
0.03383025154471397400
-0.00859997794032096863
-0.01889690198004245758
-0.01452817954123020172
0.02349339611828327179
0.01414507906883955002
-0.03935024887323379517
0.02702454663813114166
0.03293968364596366882
0.01218299474567174911
-0.05718540027737617493
-0.03127358853816986084
-0.09502763301134109497
0.02949959412217140198
-0.05496975779533386230
0.08345165103673934937
-0.01386051252484321594
-0.03382743522524833679
-0.06879988312721252441
-0.11689880490303039551
-0.03517155349254608154
-0.03729575127363204956
0.06710644811391830444
-0.06033794581890106201
0.00564218591898679733
-0.06514655053615570068
-0.10664076358079910278
-0.00205366080626845360
-0.03160716593265533447
-0.00272643426433205605
-0.00881913024932146072
-0.06105611845850944519
0.04796771705150604248
-0.03330368548631668091
0.06570059806108474731
-0.00269352388568222523
-0.00392816122621297836
-0.05136181414127349854
-0.06536533683538436890
0.09511917829513549805
-0.01951979845762252808
0.02785041369497776031
-0.00767499674111604691
-0.05861028283834457397
0.02369473315775394440
0.00865527987480163574
-0.04055944085121154785
-0.04477075114846229553
-0.03473541513085365295
-0.00384026044048368931
0.02871113456785678864
-0.00000416015973314643
-0.02718596160411834717
-0.02821007743477821350
-0.07853709906339645386
-0.08109071850776672363
-0.00421366607770323753
0.00849604327231645584
0.06305317580699920654
-0.02738691866397857666
-0.04548843577504158020
-0.07266089320182800293
0.02083793096244335175
0.01991986669600009918
-0.06799913942813873291
0.05263781175017356873
-0.04034877568483352661
-0.06833834946155548096
-0.04666285216808319092
-0.03497624024748802185
0.02505851536989212036
-0.10165517777204513550
-0.03737940639257431030
-0.03988632559776306152
-0.03506037592887878418
-0.05996764451265335083
0.01526253204792737961
0.10383550077676773071
-0.02898738160729408264
-0.00861724466085433960
-0.00685911765322089195
-0.03008490242063999176
0.00269991951063275337
0.01915608532726764679
-0.03486257791519165039
-0.01170746143907308578
-0.07338080555200576782
-0.04492251202464103699
-0.06948885321617126465
0.02122825197875499725
0.05877554789185523987
0.02415562234818935394
-0.02400037087500095367
-0.04685157537460327148
-0.01575786434113979340
-0.03317499160766601562
0.04233463108539581299
0.05547402426600456238
-0.07925961911678314209
-0.02320773713290691376
-0.03854855522513389587
-0.00654787942767143250
0.02767097763717174530
-0.03641096502542495728
-0.05095099657773971558
-0.00302102696150541306
-0.02060470543801784515
-0.06029696762561798096
0.01250100042670965195
0.08314130455255508423
-0.02642012946307659149
0.00456195604056119919
0.03146164864301681519
-0.08026221394538879395
0.01767971366643905640
0.03741962090134620667
-0.02719180844724178314
-0.02879166789352893829
-0.04122602194547653198
-0.10439807176589965820
-0.04645372182130813599
0.04294735938310623169
0.07351916283369064331
0.01992176473140716553
-0.06633032858371734619
-0.02161511033773422241
0.03683216124773025513
0.04130511730909347534
0.03104887902736663818
0.01885111629962921143
-0.09567566215991973877
-0.02292715758085250854
0.00666122836992144585
0.03287361189723014832
0.05950805544853210449
-0.03303303197026252747
-0.05450965091586112976
0.02509932219982147217
0.00126799172721803188
-0.01374856848269701004
0.00976756773889064789
0.07940194010734558105
-0.01105617638677358627
0.03255687281489372253
0.00622228672727942467
-0.06723254173994064331
-0.01380228251218795776
0.00457796407863497734
-0.04013131186366081238
-0.03050735034048557281
-0.05700718611478805542
-0.01994439959526062012
0.00767532363533973694
0.01420741993933916092
-0.00730712711811065674
-0.02242060378193855286
-0.06089759618043899536
-0.10349771380424499512
-0.00922246836125850677
0.00194729818031191826
0.05384859070181846619
0.01166354119777679443
-0.06515201181173324585
-0.05071007460355758667
0.01687494851648807526
-0.00785219389945268631
0.00823498237878084183
0.04202799126505851746
-0.00221593608148396015
0.03667644038796424866
-0.01984574645757675171
-0.03791079670190811157
-0.05312225222587585449
-0.04654859751462936401
0.09174997359514236450
0.01053413469344377518
0.00233304104767739773
-0.04743492603302001953
-0.00562481116503477097
0.01605257205665111542
0.00891502108424901962
-0.03106927126646041870
-0.02556910552084445953
-0.03077558800578117371
-0.07477536052465438843
-0.03595193848013877869
-0.00171026017051190138
-0.03772233054041862488
0.00883278436958789825
0.02521258406341075897
0.00598787609487771988
-0.03524377942085266113
0.10507012903690338135
0.02280968055129051208
-0.07723087072372436523
0.03483439236879348755
-0.05312207713723182678
0.01924013346433639526
-0.01187787950038909912
-0.02260366640985012054
-0.07872695475816726685
0.08412129431962966919
0.01662957482039928436
0.05147724971175193787
-0.00248972559347748756
-0.00968917552381753922
-0.01011364534497261047
0.06026680767536163330
-0.04194418340921401978
0.05141131579875946045
-0.03935205191373825073
-0.08087062835693359375
0.01749027147889137268
0.06380062550306320190
-0.01408176217228174210
0.03820039331912994385
0.10911390930414199829
-0.00595188466832041740
-0.06571027636528015137
-0.03940656036138534546
0.01238586567342281342
0.02084971219301223755
-0.04701948910951614380
0.01451876014471054077
-0.04616916179656982422
-0.01308161020278930664
0.00984664633870124817
0.00260879192501306534
-0.01099744066596031189
-0.01176921557635068893
-0.03257168084383010864
0.03675862029194831848
0.10120342671871185303
-0.08392395824193954468
0.01863068714737892151
-0.02010400034487247467
-0.01005211658775806427
0.04483510553836822510
0.03484272584319114685
-0.03605154529213905334
0.04350597783923149109
-0.06736520677804946899
0.03707654029130935669
0.04028804227709770203
0.00662261247634887695
-0.00701596681028604507
-0.07351277023553848267
-0.00885067414492368698
-0.03104118257761001587
-0.00525054708123207092
0.04357714578509330750
-0.03831832855939865112
0.00449094315990805626
0.03825353458523750305
0.03710317984223365784
0.00798741076141595840
0.06062560901045799255
0.04522754997014999390
-0.08199615031480789185
-0.00225455802865326405
-0.00704435445368289948
0.03102097660303115845
0.04374191537499427795
-0.01834743842482566833
-0.00889513269066810608
0.02056655101478099823
-0.05732621625065803528
-0.05504602938890457153
0.00199559354223310947
0.00974504649639129639
0.02130415476858615875
-0.03153100609779357910
-0.00782929826527833939
-0.08024491369724273682
0.03022651933133602142
0.06941136717796325684
0.00826473999768495560
-0.05313710123300552368
-0.04547150805592536926
-0.07672890275716781616
-0.09759448468685150146
0.01620986312627792358
0.03994035348296165466
0.00038977462099865079
0.00825167167931795120
-0.01310732588171958923
0.04581796005368232727
0.02302452176809310913
0.07245317846536636353
0.03278321027755737305
-0.05306145548820495605
-0.01811847090721130371
-0.04101395234465599060
0.03604884818196296692
0.02514056302607059479
-0.01191643718630075455
-0.08692869544029235840
0.02020941674709320068
-0.03571936488151550293
0.00257429201155900955
-0.01464773248881101608
0.07291538268327713013
-0.01826460845768451691
-0.01422657351940870285
0.02781747654080390930
-0.01141692139208316803
-0.01001240592449903488
0.03961951658129692078
-0.01446930784732103348
-0.00612964760512113571
-0.04182903841137886047
-0.04690413922071456909
-0.00522351963445544243
-0.00183089403435587883
0.01562149263918399811
-0.03435495495796203613
-0.02546429634094238281
-0.06971267610788345337
-0.02600894495844841003
-0.02621589228510856628
0.03988749533891677856
0.04270246252417564392
-0.07216981053352355957
-0.05169599875807762146
0.01531959604471921921
-0.00169131869915872812
0.02622436545789241791
0.01049296744167804718
-0.01808247901499271393
0.01139442157000303268
-0.00580860534682869911
-0.05343317613005638123
-0.05109124630689620972
0.00690878229215741158
-0.03555918484926223755
0.08260050415992736816
-0.00882324296981096268
-0.08229596167802810669
-0.07067665457725524902
-0.04102298244833946228
-0.01543357688933610916
-0.00086483056657016277
0.05781889706850051880
-0.05339703336358070374
-0.02224025130271911621
-0.04471036791801452637
-0.13142263889312744141
-0.02946703135967254639
-0.03753563389182090759
-0.03377523645758628845
-0.04451699182391166687
-0.02534593828022480011
0.14455479383468627930
-0.01496553048491477966
0.08593364059925079346
-0.01056019403040409088
0.01114506367594003677
-0.02164149843156337738
-0.06594312191009521484
0.08444330841302871704
-0.03742888197302818298
0.03847393020987510681
0.01531436573714017868
0.01115376129746437073
0.03694311529397964478
0.02066063880920410156
-0.02941782586276531219
0.03075696900486946106
-0.00914882961660623550
-0.04409927874803543091
0.01599087193608283997
0.05213897675275802612
-0.00698936451226472855
0.03696518763899803162
-0.01828058995306491852
-0.03130540624260902405
0.03981951251626014709
0.01282172277569770813
-0.01270295586436986923
-0.04877243936061859131
-0.04583578184247016907
-0.04983137175440788269
-0.04369929805397987366
0.03189730644226074219
0.02516707405447959900
0.02085395157337188721
-0.06952573359012603760
-0.03028931282460689545
0.01176743581891059875
0.01387989893555641174
-0.02652324922382831573
0.02352326177060604095
0.05298087745904922485
-0.00768497120589017868
-0.06802622228860855103
-0.05106538161635398865
-0.03591791540384292603
-0.02065016701817512512
0.00146594783291220665
-0.02186210080981254578
-0.00933411158621311188
-0.05667516961693763733
-0.00336648011580109596
0.03842803835868835449
0.00617388589307665825
-0.05446260794997215271
-0.04522456973791122437
-0.07878890633583068848
-0.08711078017950057983
0.02844558283686637878
0.08234917372465133667
-0.01942692324519157410
0.00245961523614823818
-0.02334955148398876190
0.00121509609743952751
-0.01755615882575511932
0.05755709484219551086
0.00179904722608625889
-0.11997375637292861938
0.02443633042275905609
-0.00973824691027402878
0.03363177552819252014
0.03312771767377853394
-0.03484272211790084839
-0.05924546718597412109
0.02195235155522823334
-0.00620214641094207764
-0.02222221903502941132
0.03076957724988460541
0.03650890663266181946
-0.03712660446763038635
-0.06025124713778495789
-0.00091572955716401339
-0.01774892769753932953
0.03992333263158798218
0.03947206214070320129
0.01931323669850826263
-0.05197918042540550232
-0.07832918316125869751
-0.04805737733840942383
-0.04533400386571884155
0.01272920798510313034
0.05269353091716766357
-0.00802505668252706528
-0.07138130813837051392
-0.04314606636762619019
0.02288519218564033508
0.02322265319526195526
-0.01990943774580955505
0.02849997952580451965
-0.10807934403419494629
-0.05657357722520828247
-0.00482376152649521828
-0.00507686519995331764
0.04797261580824851990
-0.02235724404454231262
-0.01452452410012483597
0.00485538225620985031
0.02775247208774089813
-0.02157178334891796112
0.00404856074601411819
-0.08100192993879318237
-0.05538779124617576599
0.08165208250284194946
-0.01820496283471584320
-0.01510573737323284149
-0.02551466785371303558
-0.03780503198504447937
-0.03173940256237983704
0.00437140464782714844
0.01952646113932132721
-0.05190240591764450073
0.05560002103447914124
0.00694568827748298645
-0.01009295228868722916
0.00696015171706676483
-0.01254587620496749878
-0.04162608832120895386
-0.03786719590425491333
-0.00978984963148832321
-0.05259907245635986328
-0.04355781152844429016
-0.00864151958376169205
-0.03393686935305595398
-0.00574361719191074371
-0.01735999807715415955
-0.00664417771622538567
0.02361546643078327179
0.05237959697842597961
-0.05239264667034149170
-0.08041029423475265503
-0.02716733515262603760
0.00055265391711145639
0.02253598719835281372
0.05015551298856735229
-0.06947197765111923218
-0.00441491557285189629
-0.03746808692812919617
-0.01865042187273502350
-0.00929441209882497787
-0.00585848791524767876
-0.03730998188257217407
-0.07128874212503433228
-0.04054610058665275574
-0.09826132655143737793
-0.01524565182626247406
0.09660346060991287231
-0.03681030496954917908
0.00714091304689645767
0.00964290834963321686
0.00197328929789364338
-0.02029298432171344757
0.05949084088206291199
0.01843861304223537445
-0.07856214791536331177
0.03280783817172050476
-0.03471636027097702026
0.02594879642128944397
0.02288204617798328400
-0.06189353018999099731
-0.07554283738136291504
0.06337694823741912842
-0.00592850800603628159
-0.01810588873922824860
0.03372380509972572327
0.05878796055912971497
0.01238913834095001221
-0.00390149303711950779
0.00851627532392740250
-0.01803079992532730103
0.04283993691205978394
0.02372522465884685516
0.02526409737765789032
-0.02649337425827980042
-0.07456930726766586304
0.00943748559802770615
-0.01712401024997234344
0.01154904346913099289
0.00109196244738996029
-0.01112516038119792938
-0.03209572657942771912
0.00594635354354977608
0.02668221294879913330
-0.01014440413564443588
0.02970612049102783203
-0.00260037067346274853
-0.07484761625528335571
-0.02440341375768184662
-0.01972145028412342072
0.01592045836150646210
0.03821980580687522888
0.01736195571720600128
-0.02555489540100097656
0.02815311029553413391
-0.03410056978464126587
-0.00143016898073256016
0.01562309823930263519
0.03437128663063049316
0.01447870489209890366
0.04059948772192001343
0.04299854114651679993
-0.05354756116867065430
-0.00330297183245420456
0.00539969978854060173
-0.00214044121094048023
0.00470893224701285362
-0.03027772344648838043
-0.01145809702575206757
-0.05014266073703765869
0.03541254624724388123
0.04092772305011749268
-0.00014730003022123128
-0.05839411169290542603
-0.06005699932575225830
-0.02218987606465816498
-0.00483461003750562668
-0.01208088174462318420
-0.00378764653578400612
0.00146594108082354069
-0.02420805580914020538
0.03285542130470275879
-0.00106766517274081707
0.01653911545872688293
0.01633494533598423004
-0.02793934009969234467
0.03858808055520057678
-0.01295215915888547897
0.00766637641936540604
0.00729784881696105003
0.04068099707365036011
0.06649133563041687012
-0.01926167681813240051
0.02374999225139617920
-0.03692834824323654175
0.02674470469355583191
0.00794042367488145828
0.00735990796238183975
-0.01339613832533359528
-0.02553550153970718384
0.00229354831390082836
-0.01395240798592567444
-0.02129894495010375977
0.00286999903619289398
-0.05511308461427688599
0.02172892354428768158
0.03357834741473197937
0.01729050837457180023
0.03374181687831878662
0.03900015726685523987
0.01724152453243732452
-0.04994009435176849365
-0.02439933642745018005
0.02451679296791553497
-0.01169508229941129684
-0.02665259689092636108
-0.01874333992600440979
0.00387896737083792686
-0.00309758028015494347
0.02682325243949890137
0.01117063686251640320
-0.00666774390265345573
0.08191657066345214844
0.02540236152708530426
-0.00996914226561784744
0.04562042281031608582
-0.01915983669459819794
0.02457391656935214996
0.02351244539022445679
-0.01793386228382587433
-0.00474137254059314728
-0.02582795917987823486
-0.04971880838274955750
-0.03287683054804801941
0.01002813782542943954
-0.01271461416035890579
-0.00306970532983541489
-0.01537206582725048065
-0.05659072846174240112
-0.01157346367835998535
0.02293525449931621552
0.06727658957242965698
0.05207028239965438843
-0.05268446356058120728
-0.02369243279099464417
-0.02604265511035919189
-0.00592587469145655632
0.02659356780350208282
0.02535524033010005951
0.00071968772681429982
0.01590628549456596375
-0.03978943452239036560
-0.05480490252375602722
-0.01142690144479274750
0.04450128600001335144
0.05791625380516052246
-0.04165028035640716553
-0.00851805228739976883
-0.05966971442103385925
0.02480885386466979980
0.01791011355817317963
-0.01696997508406639099
-0.05777346715331077576
-0.05006610229611396790
-0.07552012056112289429
-0.04570685327053070068
0.02099357917904853821
0.01844569668173789978
-0.06288539618253707886
0.00712691899389028549
-0.01801915653049945831
-0.00983473286032676697
-0.01294223684817552567
0.04247932508587837219
0.02715457044541835785
-0.07151459157466888428
-0.02999590337276458740
-0.04416797682642936707
-0.00463879574090242386
0.00230025732889771461
-0.00968373194336891174
-0.05613975599408149719
0.06069992855191230774
0.00957068335264921188
-0.02139737457036972046
-0.03515331447124481201
-0.09005988389253616333
-0.03852609917521476746
0.08217816799879074097
-0.02283310703933238983
-0.01340124104171991348
0.02621449902653694153
-0.04471471533179283142
-0.00454080523923039436
0.01273653004318475723
0.00052043091272935271
-0.00718477601185441017
-0.00156401179265230894
-0.01681710220873355865
-0.01171973813325166702
-0.01246665418148040771
0.01248814724385738373
-0.04328929632902145386
0.01634098216891288757
0.02540655620396137238
0.02864628471434116364
-0.02574359811842441559
0.01924097537994384766
-0.00745210936293005943
0.02265812084078788757
0.02191915921866893768
0.01801861263811588287
0.06251282989978790283
0.00523148803040385246
-0.02174872159957885742
0.03194547444581985474
0.03551330044865608215
0.05615513026714324951
0.03605983033776283264
-0.05188743397593498230
0.08817502111196517944
0.01264334749430418015
0.00964520033448934555
0.02254443988204002380
0.02944686636328697205
0.01682126149535179138
0.00872019771486520767
-0.00912931654602289200
0.04486654326319694519
0.03743363544344902039
0.02194596268236637115
-0.04046847298741340637
-0.00911035854369401932
-0.02490917779505252838
0.01042763888835906982
-0.03703531995415687561
0.04355753585696220398
-0.01729908585548400879
-0.01255590002983808517
0.00967065524309873581
0.00221935124136507511
0.05341929569840431213
-0.00866081099957227707
-0.00781700480729341507
-0.00083811202785000205
0.04302895814180374146
0.00872658193111419678
0.01634187996387481689
-0.01457689609378576279
0.05181812494993209839
0.01642861217260360718
-0.00714016752317547798
-0.01687614060938358307
-0.01750099658966064453
-0.05749161541461944580
0.04292307049036026001
0.01227902807295322418
0.01457353308796882629
-0.01430793758481740952
-0.00993295013904571533
0.00494338525459170341
-0.03283286094665527344
0.03107897378504276276
0.06220270320773124695
-0.04673732817173004150
0.02156182006001472473
0.03091132082045078278
0.05799135193228721619
0.02940474078059196472
-0.03130330145359039307
-0.00251443637534976006
-0.02748470753431320190
0.02700976282358169556
-0.00339750852435827255
0.01831888407468795776
0.04351073130965232849
0.01953533664345741272
-0.06198562681674957275
0.03748562932014465332
-0.03665684163570404053
-0.04252966493368148804
0.05170910060405731201
0.03824837505817413330
-0.00107881566509604454
-0.00467700883746147156
0.01497679296880960464
-0.08113110810518264771
0.03109341673552989960
0.01880929805338382721
-0.00279873632825911045
-0.02581044100224971771
-0.03515742346644401550
-0.06223284825682640076
-0.06476471573114395142
-0.00698273768648505211
0.04311605170369148254
-0.02647498250007629395
-0.06738841533660888672
-0.06142456457018852234
-0.01876837573945522308
0.02337253838777542114
0.02493228949606418610
0.01248164940625429153
-0.07950803637504577637
-0.02822426892817020416
-0.02986448258161544800
0.02488730475306510925
0.03144402056932449341
0.02460676431655883789
-0.05407225340604782104
0.03269487991929054260
-0.01325955707579851151
-0.02937237732112407684
-0.01460865978151559830
0.03154100477695465088
0.02142253145575523376
0.02155472338199615479
0.04193559661507606506
-0.05270721390843391418
0.00733765726909041405
0.05279160290956497192
-0.02216513827443122864
-0.03677113726735115051
-0.03137288615107536316
-0.05914049223065376282
-0.02150873839855194092
-0.00669178180396556854
0.03157274797558784485
-0.03183584660291671753
-0.03232299536466598511
-0.05501905083656311035
-0.00384285883046686649
-0.01284413505345582962
0.06234661862254142761
0.01584860496222972870
-0.08688139170408248901
-0.01653059199452400208
-0.00763060897588729858
-0.00840215105563402176
-0.01004015747457742691
0.04541060701012611389
-0.05854186788201332092
0.00585848512127995491
0.00820050667971372604
0.03795773908495903015
-0.01921539567410945892
0.02785711735486984253
0.02687707729637622833
-0.00830647349357604980
0.04369553551077842712
0.00758629571646451950
0.02083165571093559265
0.00456964271143078804
0.02633918076753616333
0.02767701633274555206
-0.03597216308116912842
0.00936651974916458130
0.03667283430695533752
0.03116797655820846558
-0.01605705171823501587
-0.06782043725252151489
-0.00181670987512916327
-0.01546812802553176880
-0.02260055020451545715
-0.01420306786894798279
0.06527820229530334473
0.00596300605684518814
-0.05719723924994468689
-0.02634105086326599121
-0.00573451956734061241
-0.00439144996926188469
-0.03809692710638046265
-0.01027053780853748322
0.01570751145482063293
0.01726826280355453491
-0.02848210558295249939
0.00193038140423595905
0.00141910626552999020
0.07342391461133956909
0.02749532088637351990
-0.03716753795742988586
0.00701078027486801147
-0.06968891620635986328
0.02767509780824184418
0.04242717474699020386
-0.01987701840698719025
-0.00686086434870958328
-0.05004285648465156555
-0.01343257445842027664
-0.03300765901803970337
-0.00624074973165988922
0.05812444910407066345
-0.01566965691745281219
-0.01875493489205837250
0.01007060892879962921
0.03868423774838447571
0.02998085692524909973
0.06420200318098068237
-0.00826432835310697556
-0.06265884637832641602
-0.00984122883528470993
-0.00702994083985686302
0.01883358880877494812
0.01244188193231821060
0.02255776897072792053
-0.02220920100808143616
0.03025461547076702118
-0.01730953529477119446
0.01184016466140747070
0.03296930715441703796
0.03234499692916870117
-0.02222676761448383331
0.02399164065718650818
-0.01798786967992782593
0.01132064126431941986
0.03219634667038917542
0.04097830504179000854
0.02627413719892501831
0.01995219103991985321
-0.06163617968559265137
-0.01438102778047323227
0.00875835586339235306
0.03299961984157562256
0.02482516132295131683
-0.02387330681085586548
-0.04402289539575576782
-0.05046681687235832214
-0.03130903095006942749
0.04402928426861763000
0.05732166022062301636
0.00580661185085773468
-0.03043972700834274292
-0.01724665984511375427
0.00618665618821978569
0.03323296457529067993
-0.01940559968352317810
0.00129873759578913450
-0.00417606998234987259
0.02725093439221382141
-0.03707827627658843994
0.00964244268834590912
-0.00562534341588616371
0.05773375183343887329
0.04711931198835372925
-0.00661649601534008980
0.03167580068111419678
-0.05015345662832260132
0.02179068885743618011
0.03492560610175132751
-0.00164341181516647339
-0.04822098091244697571
-0.04895496740937232971
-0.06525237113237380981
-0.01025392115116119385
-0.01418315339833498001
0.00329234870150685310
-0.05515020340681076050
-0.00951354205608367920
-0.00515880342572927475
0.01862014643847942352
-0.02575632371008396149
0.03164406493306159973
-0.00155557901598513126
-0.06858138740062713623
-0.02784039080142974854
0.02159840054810047150
0.02873392775654792786
0.05496852472424507141
-0.04262709990143775940
-0.01234892476350069046
-0.00321397650986909866
0.00224133301526308060
0.02359029091894626617
0.02612306922674179077
0.03168676421046257019
0.03341882675886154175
0.02721744775772094727
0.03294016420841217041
0.00327307288534939289
-0.01059718523174524307
0.03771364316344261169
-0.01451243460178375244
-0.02845588885247707367
-0.04132892936468124390
-0.00983851589262485504
-0.02198151871562004089
0.02537432685494422913
-0.03659047931432723999
-0.05022180825471878052
-0.05048013478517532349
-0.01580683328211307526
-0.01086470112204551697
0.05393239110708236694
0.05641631036996841431
-0.00837126281112432480
-0.02489725500345230103
-0.04518830776214599609
0.01724319532513618469
0.00440960144624114037
-0.00864003505557775497
0.00308043393306434155
0.02228796109557151794
0.02866943739354610443
-0.00847599934786558151
0.01467304024845361710
0.01790446974337100983
0.06191623955965042114
0.02175620384514331818
0.00463130651041865349
-0.00941133033484220505
-0.03625492751598358154
0.03808523342013359070
0.03292109072208404541
0.02107437513768672943
0.01198511291295289993
-0.02549199387431144714
-0.03904568776488304138
-0.01063173916190862656
-0.00043027917854487896
-0.01711266115307807922
-0.01666615530848503113
-0.04661710560321807861
-0.04518684744834899902
-0.03179852664470672607
0.02249430492520332336
0.03070389479398727417
0.04144314303994178772
-0.01738985627889633179
0.00576938036829233170
0.00278309546411037445
-0.01528542861342430115
-0.00174627010710537434
0.01828542165458202362
0.01586928963661193848
-0.01672864519059658051
-0.01543776784092187881
-0.05869838967919349670
-0.04268854856491088867
0.09297078102827072144
0.02962011098861694336
0.09724476188421249390
0.01628939807415008545
-0.14606237411499023438
-0.05404276400804519653
-0.04448819532990455627
0.00105401827022433281
-0.09589093178510665894
-0.02198944240808486938
-0.06678815931081771851
-0.12049920111894607544
-0.07312737405300140381
-0.06392624229192733765
-0.07965569943189620972
-0.00550144631415605545
0.03074540197849273682
-0.03006098978221416473
-0.12742568552494049072
0.11064351350069046021
0.02214563265442848206
-0.00976564642041921616
-0.01323001272976398468
-0.05777888000011444092
-0.04017084091901779175
-0.05023666098713874817
0.09808736294507980347
-0.10099862515926361084
0.03294230625033378601
0.01662656106054782867
0.05943888053297996521
0.04808760806918144226
-0.03839822486042976379
-0.04240413755178451538
0.03615307807922363281
-0.06905487179756164551
0.06717634946107864380
0.06245449185371398926
0.05847117677330970764
-0.02852442115545272827
0.06160488352179527283
-0.05449519306421279907
0.05173960700631141663
0.08546862751245498657
0.03446481376886367798
0.05802275985479354858
-0.04213509336113929749
-0.02706287428736686707
-0.03130210563540458679
-0.00108276098035275936
0.05992804095149040222
-0.06727171689271926880
-0.00740437209606170654
-0.04777500033378601074
-0.01899040676653385162
0.00145017332397401333
-0.01624519191682338715
0.03666179999709129333
-0.04260569065809249878
0.09799437224864959717
-0.07995839416980743408
0.04412763938307762146
0.05120553076267242432
-0.00190412206575274467
-0.01126629300415515900
-0.00901221577078104019
0.07576189190149307251
0.00328580802306532860
0.07865015417337417603
-0.01453225035220384598
0.02197044342756271362
0.04425090551376342773
0.06311950087547302246
-0.05605993792414665222
0.05861483141779899597
0.00822076294571161270
-0.03245222195982933044
-0.01772841624915599823
0.02076847292482852936
-0.07988301664590835571
0.02924206294119358063
0.01073463261127471924
-0.02161660604178905487
0.02352361381053924561
-0.00105142954271286726
-0.08882859349250793457
0.01750637218356132507
0.04134805500507354736
0.01509930845350027084
-0.02997052483260631561
-0.00692162103950977325
0.07871066033840179443
-0.00809922348707914352
0.00855276267975568771
0.02117164433002471924
0.02528706379234790802
-0.01657312922179698944
0.01111185457557439804
-0.00171947374474257231
-0.01973893493413925171
0.01475133933126926422
0.03175076097249984741
-0.01340672280639410019
-0.01720120385289192200
-0.00052610569400712848
-0.04051133617758750916
0.01439475361257791519
0.01559465378522872925
-0.01814813166856765747
-0.04294310882687568665
-0.05451279133558273315
-0.01757347397506237030
-0.01499259285628795624
-0.01921205781400203705
0.03989312797784805298
0.02099877223372459412
-0.02019714191555976868
-0.00861934293061494827
0.00183470116462558508
-0.00864042155444622040
0.02730083093047142029
-0.02859799750149250031
-0.00670689437538385391
0.06843359023332595825
0.00866186432540416718
0.02324475161731243134
-0.01318709459155797958
-0.01402334030717611313
-0.02348479069769382477
0.03205123171210289001
0.04311263188719749451
-0.00945910066366195679
0.04110127314925193787
-0.01816928386688232422
-0.05541282892227172852
-0.01438891980797052383
-0.01956664770841598511
-0.08717313408851623535
0.03200519457459449768
0.02202351391315460205
-0.00122868746984750032
-0.04406839609146118164
-0.03530397266149520874
-0.06020410358905792236
-0.04385836794972419739
-0.01244935113936662674
-0.05986374244093894958
0.01424115244299173355
0.00136148754972964525
-0.07787037640810012817
-0.01804466918110847473
-0.00379000278189778328
0.01292377337813377380
-0.02978800050914287567
0.04053900390863418579
-0.01012915559113025665
-0.01445327047258615494
-0.06702109426259994507
-0.06578651070594787598
-0.00987554062157869339
-0.09446875751018524170
0.04091241210699081421
-0.04384867101907730103
0.02969428524374961853
-0.06089771911501884460
0.01642939634621143341
0.01574226841330528259
0.01776524819433689117
-0.00733122788369655609
0.14917509257793426514
-0.07003333419561386108
-0.04666497185826301575
0.01023005042225122452
-0.05700465664267539978
0.03752218559384346008
0.08158005028963088989
0.09608201682567596436
0.00655005779117345810
0.02349974215030670166
-0.02858841232955455780
-0.01728239469230175018
0.11181516200304031372
0.05019014328718185425
-0.03085502982139587402
0.01844656839966773987
-0.05293143540620803833
-0.04245173186063766479
-0.08611122518777847290
0.04293985664844512939
-0.04140094295144081116
0.00465345242992043495
-0.07440435141324996948
-0.11880593746900558472
-0.03011530451476573944
0.00000878516584634781
-0.04387135058641433716
0.10713921487331390381
-0.02498322166502475739
-0.05796923860907554626
0.01167231332510709763
0.01042778324335813522
0.02833365276455879211
0.00126210821326822042
0.05745430290699005127
-0.01489205751568078995
-0.07617499679327011108
0.13164088129997253418
-0.02548022940754890442
-0.00470349844545125961
-0.00232707709074020386
-0.06240436434745788574
-0.08259949833154678345
-0.00892996974289417267
0.02157572656869888306
0.00550384167581796646
-0.03385358676314353943
-0.00814974494278430939
-0.11675159633159637451
0.01330180466175079346
0.06939257681369781494
-0.05349429324269294739
-0.01185143180191516876
0.02011947333812713623
-0.01822390221059322357
-0.07507328689098358154
-0.00398247130215167999
-0.01724903658032417297
-0.01743981614708900452
0.05537008494138717651
-0.00746571226045489311
0.01384750287979841232
0.00067199487239122391
0.03387789800763130188
0.04583757743239402771
0.00377935869619250298
0.00443292921409010887
0.04706971347332000732
-0.00464245816692709923
0.06085816025733947754
0.05410995334386825562
0.05366709083318710327
0.03825162723660469055
0.01157515216618776321
-0.03537901118397712708
-0.04075673222541809082
0.03971495479345321655
0.04393066093325614929
-0.00345604307949542999
0.04285346344113349915
-0.01018278300762176514
-0.00926514808088541031
0.01659326814115047455
-0.00238031730987131596
-0.02743151597678661346
-0.00942426081746816635
0.04124435409903526306
-0.04309802129864692688
-0.03467889130115509033
-0.06211255490779876709
0.02015467733144760132
-0.03245376423001289368
-0.01565319485962390900
0.04488753527402877808
-0.00838184170424938202
-0.02343283034861087799
0.05199317634105682373
-0.03031461685895919800
0.00428417557850480080
0.00754684489220380783
-0.04730546101927757263
-0.00204929802566766739
0.05282457917928695679
0.00858088396489620209
0.02413761429488658905
0.05350787937641143799
-0.04563537240028381348
-0.02738776057958602905
0.06414543092250823975
-0.00553356111049652100
0.03388451784849166870
0.00917607359588146210
0.01324433553963899612
-0.01980138756334781647
0.03345809504389762878
-0.01521255075931549072
0.04365805536508560181
0.04153668880462646484
0.00523106288164854050
-0.05583235621452331543
0.00039596471469849348
0.05475714802742004395
-0.00487454328685998917
0.02329683676362037659
0.00196035532280802727
-0.03539057821035385132
-0.01248859986662864685
0.01504284515976905823
-0.05010532587766647339
0.02109109610319137573
0.03666917234659194946
-0.02271163091063499451
-0.06838476657867431641
0.01022333372384309769
0.00927839241921901703
-0.00286745140329003334
-0.02604006230831146240
0.01091022882610559464
0.00227835215628147125
-0.01884691044688224792
0.00413919752463698387
0.01350660063326358795
0.03319721668958663940
0.01799985952675342560
0.01132112182676792145
0.02298348024487495422
0.00250002602115273476
0.02823665179312229156
-0.00346703478135168552
-0.01157029066234827042
-0.05438507348299026489
0.08904632925987243652
0.07447054237127304077
0.13193710148334503174
0.01121042016893625259
-0.10135301947593688965
-0.09706634283065795898
-0.05177183076739311218
-0.03499798104166984558
-0.08586098253726959229
0.00320807448588311672
-0.01750325784087181091
-0.14270088076591491699
-0.05612710118293762207
-0.05611176043748855591
-0.07136156409978866577
0.01461675576865673065
0.05502441897988319397
-0.05006359890103340149
-0.11087949573993682861
0.16760545969009399414
-0.03326560556888580322
-0.01096252165734767914
0.00860236771404743195
-0.08339691162109375000
-0.01735843531787395477
-0.07772862911224365234
0.13319528102874755859
-0.15181504189968109131
0.07096705585718154907
-0.03241335600614547729
0.00705758249387145042
-0.05046904459595680237
-0.00772429443895816803
0.02604042924940586090
0.04109292849898338318
0.03036279045045375824
0.00121264997869729996
-0.04835756868124008179
-0.02960172481834888458
-0.04293235763907432556
-0.01607776060700416565
-0.10989299416542053223
-0.00798273924738168716
0.00917360465973615646
-0.02878960967063903809
-0.06967324763536453247
-0.00053340848535299301
-0.01146575435996055603
-0.03155032172799110413
-0.05926983430981636047
-0.03992980718612670898
0.07338062673807144165
0.00519088981673121452
-0.11245206743478775024
-0.02701458148658275604
-0.03222714737057685852
-0.01940060779452323914
-0.05723865330219268799
0.04003993794322013855
0.00756368832662701607
0.04191515594720840454
-0.02067044004797935486
0.02514658123254776001
0.02510833367705345154
-0.01570498757064342499
-0.02445372194051742554
-0.01186067052185535431
0.00221514306031167507
-0.07220604270696640015
0.00878541078418493271
0.02759014070034027100
-0.01855617202818393707
-0.01501891389489173889
0.00840940978378057480
-0.07332450896501541138
0.02863871864974498749
0.04033899307250976562
-0.02292255498468875885
-0.01151403132826089859
0.05072435736656188965
-0.02434590272605419159
0.02719159796833992004
0.07572168856859207153
-0.02091042511165142059
0.01176916994154453278
0.00596263632178306580
-0.02021191082894802094
0.02596589550375938416
0.02176683209836483002
0.00067155325086787343
-0.01948498003184795380
0.01114166527986526489
0.02988728508353233337
0.01692365668714046478
0.05907890573143959045
0.06465908139944076538
0.04622820019721984863
-0.05734476447105407715
-0.02140046097338199615
-0.01899422705173492432
0.02061538584530353546
0.00734744779765605927
0.02563304826617240906
-0.00635921349748969078
0.03390565514564514160
-0.00898437201976776123
0.04200510680675506592
0.10882397741079330444
0.02625858597457408905
-0.00786371529102325439
-0.03215195611119270325
-0.03065637685358524323
-0.07484988868236541748
-0.03633901104331016541
0.03844218328595161438
-0.04763463884592056274
0.00280188093893229961
-0.02799436263740062714
-0.07470528781414031982
0.03270511329174041748
0.02531935274600982666
0.05075704678893089294
0.01121861673891544342
0.10668216645717620850
-0.04032523930072784424
-0.04897301644086837769
-0.00342942867428064346
0.01041140221059322357
-0.07176488637924194336
-0.03515728935599327087
0.04218091815710067749
-0.02574967592954635620
-0.01035799831151962280
-0.04523607343435287476
-0.04024755954742431641
0.00163116527255624533
-0.01822189427912235260
-0.04699297621846199036
-0.09095451980829238892
0.03204936161637306213
-0.02064483985304832458
0.02190673723816871643
-0.04096892848610877991
-0.02084821462631225586
-0.05058517679572105408
-0.03398753330111503601
-0.03242101147770881653
-0.00608132174238562584
-0.02571358717978000641
-0.04631490260362625122
-0.04938008263707160950
-0.00389068410731852055
0.00992291420698165894
0.00411520106717944145
0.00654973601922392845
0.04536540433764457703
-0.01185373868793249130
-0.04328501224517822266
-0.02117947302758693695
0.01106270682066679001
-0.06269821524620056152
-0.03221572563052177429
-0.01254638656973838806
-0.03149916604161262512
-0.03529838472604751587
-0.00031755107920616865
0.01712135039269924164
0.00802274793386459351
-0.00377710908651351929
0.09320379793643951416
-0.02637534402310848236
0.00732091534882783890
0.01359187159687280655
0.03051582165062427521
0.03266848251223564148
0.05885503813624382019
0.05767414346337318420
-0.00000166997779160738
0.02409726008772850037
-0.03259558975696563721
-0.02496957220137119293
0.04569283127784729004
0.02797655761241912842
-0.02468787506222724915
-0.00754012539982795715
0.02660036459565162659
-0.04772340506315231323
-0.03972892835736274719
-0.00624259002506732941
0.01522522233426570892
-0.02365571074187755585
-0.02049917727708816528
-0.07670548558235168457
0.02406168542802333832
-0.05308382958173751831
0.02396545745432376862
0.03281730785965919495
0.00260711228474974632
-0.00948464777320623398
0.02314419299364089966
0.03884591162204742432
-0.00405723135918378830
0.02940094657242298126
0.04000326618552207947
0.01917377300560474396
-0.03670953214168548584
0.04486235231161117554
0.03207914903759956360
0.01489252317696809769
0.02392289787530899048
0.02052060328423976898
0.00369049375876784325
-0.04762221127748489380
0.03171309456229209900
0.04423772543668746948
0.01642778515815734863
0.02599055692553520203
-0.00544271012768149376
0.03652577847242355347
-0.00798216182738542557
0.02774052694439888000
0.03725759312510490417
0.04947714880108833313
-0.00703124329447746277
0.00901623163372278214
0.00871775578707456589
0.02247307263314723969
-0.02320242859423160553
0.06030791997909545898
-0.00543205952271819115
-0.01456061750650405884
0.00554986577481031418
0.03120334818959236145
-0.01769082620739936829
0.03910654410719871521
0.02431681938469409943
-0.02196506783366203308
-0.01532937306910753250
-0.00460236659273505211
-0.01195319648832082748
-0.02304898202419281006
-0.04155291616916656494
-0.03148730471730232239
0.00164516130462288857
-0.02774978242814540863
-0.03439373895525932312
-0.02362520433962345123
0.03797366470098495483
0.01301897037774324417
-0.01450867298990488052
0.00334240752272307873
0.01442768983542919159
-0.00796857196837663651
-0.05394557863473892212
0.00290555018000304699
-0.06115125492215156555
-0.11216062307357788086
0.01045515760779380798
-0.05186063051223754883
-0.01492667943239212036
0.01685862243175506592
-0.03044921904802322388
-0.02401445060968399048
-0.01962370425462722778
0.02704525738954544067
0.06575086712837219238
0.00357305514626204967
0.03127129748463630676
0.02325193211436271667
-0.03279460594058036804
0.04595423862338066101
0.06812106817960739136
0.05148813873529434204
0.02422248013317584991
-0.04393890872597694397
-0.03918438032269477844
-0.03669092804193496704
0.07809975743293762207
0.02376074343919754028
-0.02535429596900939941
0.00828035175800323486
-0.07458698749542236328
0.02259343303740024567
0.01971879974007606506
-0.00309987436048686504
-0.00917034223675727844
0.03186629712581634521
0.01887047477066516876
-0.03834237530827522278
0.02429366298019886017
-0.02402173355221748352
0.03022693656384944916
0.03278229385614395142
0.01784840784966945648
0.00383530696853995323
-0.00898436456918716431
0.02418355643749237061
-0.02829350903630256653
0.02364145033061504364
0.02028555795550346375
0.00415275897830724716
-0.01443742029368877411
0.01783389039337635040
0.01561797875910997391
0.01471060141921043396
-0.00092782743740826845
-0.01566728763282299042
-0.01727825216948986053
-0.00261462619528174400
-0.02019923366606235504
-0.00634823646396398544
0.03139224275946617126
-0.00416440144181251526
-0.03005095198750495911
-0.01192801166325807571
-0.00680249975994229317
0.04589566588401794434
0.03468740358948707581
0.00359807698987424374
0.01714515127241611481
-0.03239188715815544128
-0.00258353911340236664
-0.03362026438117027283
0.01834780164062976837
0.01177944522351026535
0.02126381546258926392
-0.00964007340371608734
0.00672634225338697433
0.02467049658298492432
0.06872846186161041260
0.00916617549955844879
-0.00402477197349071503
0.03705737367272377014
-0.04229799285531044006
0.04465310648083686829
0.05200637504458427429
0.03210889920592308044
0.02717758156359195709
0.04868281632661819458
0.00950045417994260788
0.00646403152495622635
0.01833254285156726837
0.00239097001031041145
-0.00003505437052808702
-0.00648386264219880104
-0.02094524726271629333
0.01701893284916877747
0.04289411008358001709
0.02472950331866741180
0.00062553799943998456
-0.02569159679114818573
-0.03034840151667594910
-0.02276068925857543945
0.01667972467839717865
0.02852643094956874847
0.01250545866787433624
-0.07522031664848327637
-0.00856493692845106125
-0.01114998850971460342
-0.00120596738997846842
-0.03104846738278865814
-0.03235612809658050537
-0.06571356207132339478
-0.05036067962646484375
0.02084279991686344147
0.00382584636099636555
-0.08455510437488555908
-0.02057623490691184998
-0.00631580688059329987
-0.02963911183178424835
0.00836870167404413223
0.04950175434350967407
0.00059938809135928750
-0.00275350897572934628
-0.00408337265253067017
0.00845260825008153915
0.00756857683882117271
0.02815068513154983521
0.02667029015719890594
-0.05475949868559837341
-0.02529110386967658997
0.01441494375467300415
0.02105713076889514923
-0.06031515076756477356
-0.06630180031061172485
-0.01496887020766735077
0.02153662405908107758
0.01576083712279796600
0.09116546809673309326
-0.04255547001957893372
-0.07263120263814926147
-0.02073993720114231110
0.02929647080600261688
0.00008413119940087199
0.02978310734033584595
0.04151590913534164429
-0.02170088328421115875
-0.05463709682226181030
0.05792908370494842529
-0.04335707798600196838
-0.02618826180696487427
-0.02615270018577575684
-0.01332424767315387726
-0.03393735736608505249
-0.05128527060151100159
0.00200654496438801289
-0.02669180370867252350
0.02337268553674221039
-0.05488463118672370911
-0.07977629452943801880
0.02837134711444377899
0.06847583502531051636
0.00206160941161215305
-0.00167773338034749031
-0.01646195910871028900
-0.02040801569819450378
-0.01661321893334388733
-0.01771472953259944916
0.02849394455552101135
0.01153443846851587296
0.01538188010454177856
0.02005020529031753540
-0.01228137873113155365
-0.03864392638206481934
-0.00650170119479298592
0.06012317538261413574
-0.01868294551968574524
0.05151590704917907715
0.01496827136725187302
-0.05783563107252120972
0.04055903851985931396
0.02098357863724231720
0.00277709309011697769
0.01480486709624528885
-0.00513867847621440887
-0.05910680815577507019
0.00318802357651293278
0.07163384556770324707
-0.00524235004559159279
0.02611729130148887634
-0.02926221303641796112
-0.05207556113600730896
0.01559516973793506622
0.02273863554000854492
-0.02744933962821960449
0.01821278594434261322
0.02824708446860313416
-0.00577654922381043434
-0.01321384310722351074
0.00487864529713988304
0.04796053469181060791
-0.00503129046410322189
0.02108976058661937714
0.00874604377895593643
0.02420730330049991608
-0.01637134887278079987
0.05718900263309478760
-0.02668895758688449860
0.04427919536828994751
0.00783219560980796814
0.01172279473394155502
-0.04308813065290451050
-0.01692789047956466675
-0.04389657452702522278
-0.04177319630980491638
-0.02512625232338905334
-0.01052402332425117493
0.00391022954136133194
-0.03221554309129714966
-0.06050533801317214966
0.00074902322376146913
0.03291794657707214355
0.02341726236045360565
-0.02011492475867271423
-0.00390340527519583702
0.04945862665772438049
0.00793354865163564682
0.00501933926716446877
-0.04276615753769874573
-0.03978029265999794006
-0.07248837500810623169
-0.00172696379013359547
-0.03073835186660289764
0.01798929087817668915
0.03199520707130432129
-0.02005334198474884033
-0.06235336139798164368
0.00776957813650369644
0.03783895820379257202
0.00058496673591434956
-0.00791697762906551361
0.03046343103051185608
-0.03072954341769218445
-0.09794958680868148804
0.04800366237759590149
0.01169035024940967560
0.03029888868331909180
0.01238159742206335068
-0.02802731283009052277
-0.01098872628062963486
-0.01084681507200002670
0.06152609363198280334
-0.00637048389762639999
0.00573613168671727180
-0.00064083497272804379
-0.06653147190809249878
-0.02510801516473293304
0.07552925497293472290
0.02086171507835388184
-0.03167826682329177856
-0.05317391455173492432
-0.07194890081882476807
-0.10912846773862838745
-0.01289664302021265030
-0.01785120740532875061
0.00729184644296765327
0.01276518218219280243
-0.02223166264593601227
-0.03151199221611022949
-0.01660288311541080475
0.01067013759166002274
0.02781326510012149811
0.00774436956271529198
0.02726062573492527008
0.00728114880621433258
-0.04351319000124931335
0.08781654387712478638
0.02082335017621517181
0.03513761609792709351
-0.01073789596557617188
-0.00449023675173521042
0.00163086305838078260
-0.03414620086550712585
0.07042296975851058960
0.06385987251996994019
-0.00705316290259361267
0.02636613510549068451
-0.07488378137350082397
0.02296851947903633118
0.06026960164308547974
-0.00602856185287237167
-0.00639927899464964867
-0.00173561519477516413
-0.00947844237089157104
-0.08265996724367141724
0.02819450199604034424
-0.04169135540723800659
0.02634497918188571930
0.03840677067637443542
0.01510175690054893494
0.00542382337152957916
0.03344741836190223694
0.01619564183056354523
0.05707972496747970581
-0.00705245183780789375
-0.00223735393956303596
0.03361805528402328491
-0.01415138226002454758
0.04956841841340065002
0.02694151550531387329
0.04616089910268783569
0.01739380136132240295
0.00765105709433555603
-0.01966069079935550690
-0.00366854667663574219
0.06791362911462783813
0.02515588514506816864
0.02024346031248569489
-0.00497462367638945580
-0.00330627080984413624
0.00123988999985158443
0.05178413167595863342
0.02743480727076530457
0.01971301808953285217
-0.01719181612133979797
-0.00341733032837510109
-0.05556955933570861816
0.01820312999188899994
0.01439045369625091553
-0.00054914754582569003
0.05718756839632987976
-0.01037821918725967407
-0.04965691640973091125
0.01565870270133018494
0.01830187812447547913
-0.02898745238780975342
0.03160109370946884155
0.04298536106944084167
-0.01958693936467170715
-0.08020421117544174194
0.02443596720695495605
-0.00527556519955396652
0.02474530227482318878
-0.00218334351666271687
-0.02216704189777374268
0.03114553913474082947
-0.01828824356198310852
0.02761404216289520264
0.01141469180583953857
0.01962402462959289551
-0.02458144165575504303
-0.06319168955087661743
0.01909478008747100830
0.02653181739151477814
0.00596600444987416267
0.00478332070633769035
-0.00931366812437772751
0.01683561876416206360
-0.05984212830662727356
-0.00688655721023678780
0.01610389165580272675
0.00930248387157917023
0.03082771226763725281
-0.02737927995622158051
0.01105293165892362595
-0.00580874923616647720
0.01901349984109401703
-0.02456834912300109863
0.00239178910851478577
0.03383968025445938110
-0.00149951269850134850
-0.05061407759785652161
0.00514450063928961754
-0.00838253274559974670
0.06135640293359756470
0.02304758504033088684
0.03080789931118488312
-0.00453723547980189323
-0.05058275535702705383
-0.01818433217704296112
0.04933467134833335876
0.02168558910489082336
-0.00158177444245666265
0.01729682460427284241
-0.00425638258457183838
0.01635382510721683502
-0.02072950825095176697
-0.01950384490191936493
-0.04088112711906433105
-0.00309976586140692234
-0.04897778108716011047
0.01210879813879728317
0.00100696261506527662
0.02551748789846897125
0.07734521478414535522
-0.01135006826370954514
-0.03943245485424995422
0.04275513812899589539
0.01957205496728420258
-0.03586182370781898499
0.02619374729692935944
0.02403335832059383392
0.02301106974482536316
-0.07909736782312393188
0.03523590788245201111
-0.01056004036217927933
0.04539090394973754883
0.00323503441177308559
-0.00980432238429784775
-0.00321965524926781654
-0.06067185848951339722
0.01224333792924880981
0.02969226986169815063
0.00252002174966037273
0.03781571239233016968
-0.05091848596930503845
0.00188087380956858397
0.05101615935564041138
0.03591340780258178711
0.01402517594397068024
0.00178356701508164406
-0.04359976947307586670
-0.07544644922018051147
0.03720067441463470459
0.03089542873203754425
0.01019442267715930939
0.03416951000690460205
-0.01231704093515872955
-0.04413706064224243164
-0.00508813001215457916
0.04814419150352478027
-0.01509064063429832458
0.03003168478608131409
-0.00558610633015632629
-0.00843994040042161942
-0.05957864969968795776
0.03492631763219833374
-0.00253431289456784725
0.03049968555569648743
-0.00374070787802338600
-0.03637832403182983398
0.02259247004985809326
-0.03533466532826423645
-0.01258297450840473175
0.03877032175660133362
-0.00039292074507102370
-0.00198665121570229530
0.00159123528283089399
-0.00777294579893350601
0.02186451852321624756
-0.02460723184049129486
-0.04687331989407539368
-0.03720973059535026550
-0.10785353183746337891
0.07879213988780975342
0.02921944856643676758
0.06441015750169754028
0.00774052925407886505
-0.13680109381675720215
-0.05083719268441200256
-0.10524848103523254395
-0.06720638275146484375
-0.08776436746120452881
-0.04122854396700859070
-0.10849239677190780640
-0.03877646848559379578
-0.07181814312934875488
-0.08006708323955535889
-0.10474737733602523804
-0.00730384560301899910
-0.02415831387042999268
-0.03023355081677436829
-0.05769395455718040466
0.11417595297098159790
-0.00699273217469453812
-0.01436033565551042557
-0.00129128224216401577
-0.07863484323024749756
-0.07678467035293579102
-0.07081757485866546631
0.08590316027402877808
-0.08462580293416976929
0.05210413783788681030
0.03020817227661609650
0.06187999993562698364
0.03479091450572013855
0.00056771468371152878
-0.03603354468941688538
-0.00931377429515123367
0.00566887436434626579
0.02841364592313766479
0.00528751080855727196
0.01223872974514961243
0.00977100618183612823
-0.02361738495528697968
-0.04053508490324020386
-0.06022635102272033691
0.01055632811039686203
-0.01359890587627887726
0.08604504913091659546
-0.07990781217813491821
-0.06394042819738388062
-0.07631666958332061768
0.01104488968849182129
0.01484573911875486374
-0.12636159360408782959
0.04311332851648330688
-0.06862617284059524536
-0.04457265138626098633
-0.02689360454678535461
0.01349583920091390610
0.02654915861785411835
-0.06617210805416107178
0.06044205278158187866
-0.07483568042516708374
0.00643176166340708733
0.01976080611348152161
0.05180326476693153381
0.05199783667922019958
0.02991156093776226044
0.04150730744004249573
0.03017513081431388855
-0.06274203956127166748
0.01167383883148431778
0.02983887307345867157
-0.02234322577714920044
-0.01364736538380384445
-0.06787987053394317627
0.03093712031841278076
0.00052865955512970686
-0.00971862673759460449
0.01220584753900766373
-0.08937153220176696777
-0.00214224774390459061
-0.01713828556239604950
0.01097677275538444519
0.00683908024802803993
0.02516890130937099457
0.01233385782688856125
-0.02953097410500049591
-0.03388337418437004089
0.01218888256698846817
-0.04339152947068214417
0.02974191680550575256
0.01753528788685798645
-0.01801126636564731598
-0.02506522461771965027
-0.00037112546851858497
0.00178691511973738670
0.03490260243415832520
0.04655044898390769958
0.02986056730151176453
-0.04065332561731338501
0.00050080032087862492
-0.05835872516036033630
-0.00367207103408873081
0.04273976758122444153
0.00782635062932968140
-0.06855726987123489380
-0.05671214312314987183
-0.04065224528312683105
-0.03730236366391181946
-0.00399309583008289337
0.02527661807835102081
-0.07922182232141494751
-0.00495041999965906143
-0.04267582297325134277
0.01665972359478473663
0.04927850514650344849
0.03037040680646896362
-0.00285185105167329311
-0.01534057408571243286
-0.00580412708222866058
-0.01890340633690357208
0.02408540062606334686
0.01033699978142976761
0.01862521097064018250
-0.00522275501862168312
-0.01510224398225545883
-0.01903689280152320862
-0.02626969106495380402
0.01847446523606777191
0.07498478144407272339
0.03165628388524055481
0.02806400135159492493
0.03968513756990432739
-0.02831183187663555145
-0.02858239412307739258
-0.01071496307849884033
0.00794840790331363678
-0.04279899969696998596
-0.05900534614920616150
0.00712685333564877510
0.03332375362515449524
-0.03647908568382263184
-0.00771220959722995758
-0.01357944123446941376
-0.06475176662206649780
-0.06790705025196075439
-0.02222577854990959167
0.00607819017022848129
0.06514489650726318359
0.00327304657548666000
-0.09569616615772247314
-0.05409052595496177673
