0.20009618997573852539
-0.28808617591857910156
0.08919198811054229736
-0.16120178997516632080
0.23921906948089599609
-0.28907799720764160156
0.22846670448780059814
0.00142399803735315800
-0.22236961126327514648
0.19174337387084960938
0.27285367250442504883
0.20088890194892883301
-0.22286608815193176270
-0.17982068657875061035
0.17944158613681793213
-0.10421154648065567017
-0.11741744726896286011
0.00085936975665390491
-0.06263919174671173096
-0.11583998054265975952
-0.19055075943470001221
0.19490136206150054932
0.10010369122028350830
0.00195762608200311661
-0.08536630123853683472
0.00947703607380390167
0.15580013394355773926
-0.14480452239513397217
0.12405040115118026733
0.09468503296375274658
0.08751316368579864502
0.17012943327426910400
0.12705068290233612061
0.15757392346858978271
0.25928562879562377930
0.15870419144630432129
0.24637061357498168945
-0.30175450444221496582
-0.00139152142219245434
-0.02818095497786998749
-0.06308344751596450806
-0.07101462036371231079
0.13036392629146575928
0.01527000218629837036
-0.19175405800342559814
0.01969627290964126587
0.11652126163244247437
-0.22937604784965515137
0.14385646581649780273
0.19671200215816497803
0.03917808458209037781
0.21002784371376037598
-0.14665259420871734619
0.14112967252731323242
0.20125420391559600830
0.01083792466670274734
0.26274317502975463867
-0.09962554275989532471
-0.10548428446054458618
-0.02466120757162570953
0.03513479605317115784
-0.04451451823115348816
0.07235927879810333252
0.15138329565525054932
0.25303637981414794922
-0.00113020674325525761
0.05275278538465499878
0.23873032629489898682
0.31194296479225158691
-0.28959611058235168457
-0.22504287958145141602
-0.08207289874553680420
0.03535396978259086609
0.17883962392807006836
0.38234671950340270996
0.21052852272987365723
0.16419367492198944092
0.17878785729408264160
-0.05320844799280166626
0.00860005430877208710
-0.00718457065522670746
0.13987869024276733398
-0.09234251081943511963
0.00488634873181581497
0.08988389372825622559
-0.01548505015671253204
-0.03895948082208633423
0.12852412462234497070
0.27919277548789978027
0.07389973104000091553
-0.14315377175807952881
0.11900455504655838013
0.15796899795532226562
0.00064253085292875767
-0.10112746059894561768
-0.01760428585112094879
-0.03910173848271369934
-0.29279479384422302246
-0.14850796759128570557
-0.08272597938776016235
0.09743674844503402710
0.07001326978206634521
0.05523455888032913208
0.09092305600643157959
-0.09580722451210021973
0.10591480135917663574
0.05001578107476234436
-0.03918259963393211365
0.02701029554009437561
-0.17958505451679229736
0.08465231955051422119
-0.01705465093255043030
0.20610579848289489746
-0.06716794520616531372
0.25338619947433471680
0.13267678022384643555
0.04845593869686126709
-0.00585607718676328659
-0.06731385737657546997
-0.16319884359836578369
-0.08740127086639404297
0.30090719461441040039
0.15221308171749114990
0.09353052824735641479
0.09119307249784469604
0.02091110125184059143
0.09182469546794891357
0.03052606061100959778
0.09751768410205841064
0.08345035463571548462
0.01992492564022541046
0.10341626405715942383
-0.02828242443501949310
0.05794952809810638428
0.07302294671535491943
-0.01912491396069526672
0.25848504900932312012
0.07333724945783615112
0.19968245923519134521
0.24193701148033142090
0.00437589455395936966
0.04842147231101989746
0.08432204276323318481
0.15258431434631347656
0.12690588831901550293
0.20417317748069763184
0.13922652602195739746
0.25371488928794860840
0.25156268477439880371
0.10796988755464553833
0.01039211917668581009
0.04449594765901565552
0.06182455644011497498
0.23273527622222900391
0.07403036952018737793
0.18820634484291076660
0.09975939989089965820
0.18953788280487060547
0.21807231009006500244
0.19746592640876770020
0.04049511626362800598
0.20877476036548614502
0.16056604683399200439
0.20596376061439514160
0.19814820587635040283
0.21983584761619567871
-0.26821169257164001465
0.16637136042118072510
0.11676659435033798218
0.16857747733592987061
0.05830111354589462280
0.10190569609403610229
0.25781854987144470215
0.11155983805656433105
-0.17789073288440704346
0.05622168630361557007
0.17458057403564453125
-0.11535178124904632568
-0.09868399798870086670
0.23863612115383148193
0.16446772217750549316
-0.11066535115242004395
-0.13258649408817291260
-0.07189512252807617188
0.26950386166572570801
0.03789956122636795044
0.14553731679916381836
-0.04287800565361976624
0.06635035574436187744
0.26075541973114013672
0.17479230463504791260
0.05041834339499473572
-0.26013705134391784668
-0.20025910437107086182
-0.23509144783020019531
-0.05321542918682098389
-0.06373772770166397095
0.24249894917011260986
0.28192806243896484375
0.18344803154468536377
0.23871713876724243164
-0.13836386799812316895
-0.44160026311874389648
0.17672337591648101807
0.13324198126792907715
-0.03890808671712875366
0.02545859478414058685
0.05243592336773872375
0.14355437457561492920
-0.16333213448524475098
0.29091051220893859863
0.14995689690113067627
0.04573014378547668457
-0.18729279935359954834
0.15472531318664550781
0.10094156861305236816
-0.16451995074748992920
0.03733647614717483521
0.18797042965888977051
0.12169527262449264526
0.20177292823791503906
-0.06459581851959228516
0.19443400204181671143
0.10235267132520675659
-0.31037729978561401367
-0.07352024316787719727
0.12743556499481201172
0.00027231936110183597
-0.11409728974103927612
0.26594784855842590332
0.00345836021006107330
0.24051086604595184326
-0.00602160813286900520
-0.01363603025674819946
-0.39837419986724853516
-0.14055977761745452881
0.05740994587540626526
0.00470934435725212097
-0.14730158448219299316
0.17380051314830780029
0.06223113089799880981
0.03769345581531524658
0.13422542810440063477
-0.12471874058246612549
0.25231587886810302734
-0.17042839527130126953
0.18510638177394866943
0.19274082779884338379
0.15135714411735534668
0.25831425189971923828
0.10703103244304656982
0.09685488790273666382
-0.00095286208670586348
0.17800880968570709229
0.10480752587318420410
0.04058343917131423950
-0.26012423634529113770
0.26859381794929504395
0.11636182665824890137
0.14812481403350830078
0.06953253597021102905
0.01255186926573514938
0.02861514315009117126
0.24814237654209136963
0.21214909851551055908
0.11388846486806869507
-0.29798918962478637695
-0.19096074998378753662
0.13300664722919464111
0.09884148091077804565
-0.25575229525566101074
0.26612883806228637695
0.19855719804763793945
0.15736274421215057373
0.16231468319892883301
0.19241668283939361572
0.19595417380332946777
-0.24267616868019104004
-0.10746238380670547485
0.01863428391516208649
0.02110128663480281830
-0.00032922174432314932
-0.03031856566667556763
0.16340404748916625977
0.03469166159629821777
0.16234515607357025146
-0.07512026280164718628
0.17028276622295379639
